-3.85637, 0.196697, 1.88339, -1.89356, -0.990208, -2.42971, 3.80699, 0.0985449, 0.243592, -1.94319, -3.1433, 2.5239, 3.20436, -0.383771, -2.03689, -2.02074, -2.49381, -1.41341, -3.17255, 2.45408, 0.258583, 2.72456, 1.86589, -3.39085, 0.306214, -2.9519, 2.90056, -0.283229, -0.224216, -0.39996, -2.1322, -3.90584, -3.87202, 3.70581, 2.87726, 1.86446, 0.429609, 2.27351, 1.19121, -1.07335, -0.930195, -1.85341, -1.18541, 1.12736, -1.09126, -3.59849, 0.128065, -2.80448, -0.109247, -0.570608, -1.51333, -2.67623, 4.54696, 0.912392, -2.96391, 4.00664, -0.527194, 1.61251, -2.50718, 0.33516, 4.03771, -1.95259, 2.49625, 0.240942, -0.18512, 2.00951, -1.96506, 3.16624, 2.85931, -3.12417, -3.75732, -2.92824, 1.09828, -0.938272, -1.79547, 0.721358, 1.13673, -2.70403, 3.44433, -1.10725, 2.9626, -1.20692, 1.58842, 3.37252, -0.266267, -0.473412, 3.37104, -0.249616, 3.93785, -1.10566, 2.70228, 3.19837, 2.23737, 1.09213, 3.01479, 0.461287, -1.45713, -1.23674, -1.5082, -0.427493, 0.532788, 1.21329, -3.47316, 0.0298873, 0.280833, -2.44995, 3.0165, -0.308879, -0.667836, 3.28774, -2.99265, -0.567365, -1.65983, -0.712348, -2.06095, -1.11677, 1.68825, 3.86723, -2.50715, 1.38916, 3.71457, 0.697678, -3.2939, -1.0329, -2.988, 2.50631, -0.866507, -3.39017, 0.752401, -1.41628, -1.9297, -0.129771, -0.268951, 1.61859, -1.72547, -1.44501, 3.58313, -2.52104, 1.31095, 0.118227, 2.27649, -2.98283, -1.1697, -2.36804, -1.6131, -2.19444, 4.10047, 1.96001, 0.935827, 0.215693, -0.108852, -1.00116, -1.6207, -0.879481, -0.73211, -0.565563, -1.44069, -1.25253, -3.12437, 2.04753, -0.154307, -3.10528, -0.486398, 0.73289, -2.23491, 3.02956, 3.3114, 3.71967, 2.35556, -2.13482, 0.0775452, -2.43521, 2.95803, 2.57352, 4.10574, -0.884592, 1.31989, 1.51973, 3.17006, -3.01157, 1.44021, 3.97286, 3.80538, -2.9574, -1.04693, -3.67654, 0.342536, -2.60265, 0.0421724, -2.75139, 2.3436, -1.99957, -2.26868, -1.29984, 1.96343, -0.685687, 3.65946,  
-4.3358, 0.196697, 1.88339, -1.89356, -0.990208, -2.42971, 3.80699, 0.0985449, 0.243592, -1.94319, -3.1433, 2.5239, 3.20436, -0.383771, -2.03689, -2.02074, -2.49381, -1.41361, -3.17405, 2.44818, 0.241083, 2.69166, 1.83199, -3.41654, 0.294714, -2.9556, 2.90046, -0.283229, -0.224216, -0.39996, -2.13246, -3.92521, -4.01101, 3.25794, 1.97055, 0.57969, -0.908118, 1.25987, 0.664049, -1.23241, -0.943869, -1.85341, -1.18541, 1.12716, -1.09675, -3.71049, -0.370825, -3.93424, -1.79979, -2.54851, -3.66434, -4.75259, 3.11136, 0.309818, -3.04258, 4.00594, -0.527194, 1.61231, -2.51708, 0.201832, 3.6432, -2.58287, 1.75384, -0.515686, -1.35972, 0.227771, -3.45853, 2.52231, 2.76774, -3.12387, -3.75732, -2.92834, 1.09166, -0.982847, -1.89252, 0.546746, 0.720411, -3.67141, 1.64584, -3.10989, 1.81094, -1.52075, 1.56211, 3.37252, -0.266267, -0.473412, 3.36994, -0.262821, 3.87811, -1.49101, 1.40276, 0.961309, -0.288557, -0.969006, 2.0043, 0.246768, -1.46988, -1.23694, -1.5082, -0.427693, 0.530782, 1.19467, -3.55286, -0.424385, -0.881514, -3.99406, 1.40779, -2.02303, -2.14047, 2.71699, -3.06704, -0.568365, -1.65983, -0.712548, -2.08244, -1.20482, 1.56189, 3.66937, -2.79042, 1.03571, 3.1603, -0.55859, -4.97274, -1.86502, -3.16003, 2.50351, -0.866507, -3.39037, 0.689936, -1.70626, -2.35339, -0.494347, -0.511847, 1.37523, -2.31202, -2.91616, 1.85779, -3.31071, 1.14548, 0.115839, 2.27649, -2.98333, -1.24944, -2.82691, -2.55927, -3.39348, 2.9345, 0.709149, -0.761566, -1.78028, -1.47163, -1.45502, -1.68004, -0.880081, -0.73211, -0.565563, -1.47375, -1.51061, -3.9417, 0.490865, -2.22759, -5.30336, -2.40796, -0.478365, -2.69581, 2.93426, 3.30436, 3.71957, 2.35556, -2.13482, 0.0750451, -2.46867, 2.8318, 2.28724, 3.66341, -1.33634, 1.02076, 1.39436, 3.13652, -3.01797, 1.43971, 3.97286, 3.80538, -2.9574, -1.04693, -3.67654, 0.342036, -2.60355, 0.0407724, -2.75348, 2.3421, -2.00097, -2.26978, -1.30034, 1.96343, -0.685687, 3.65946,  
-3.84947, 0.196697, 1.88339, -1.89356, -0.990208, -2.42971, 3.80699, 0.0985449, 0.243592, -1.94319, -3.1433, 2.5239, 3.20436, -0.383771, -2.03689, -2.02074, -2.49381, -1.41361, -3.17405, 2.44828, 0.241783, 2.69316, 1.83529, -3.41174, 0.297814, -2.9539, 2.90096, -0.283229, -0.224216, -0.39996, -2.13246, -3.92491, -4.00511, 3.30624, 2.17385, 1.13989, 0.0259816, 2.22967, 1.29714, -0.958314, -0.871169, -1.84241, -1.18471, 1.12716, -1.09675, -3.70219, -0.273025, -3.48004, -0.626898, -0.627979, -1.48815, -2.63894, 4.88763, 1.35553, -2.63588, 4.08614, -0.523094, 1.61231, -2.51548, 0.242432, 3.9221, -1.66917, 3.4084, 1.08988, -0.302121, 1.38769, -1.84894, 3.79262, 3.35444, -2.99746, -3.75072, -2.92834, 1.09256, -0.932547, -1.56732, 1.55665, 2.34409, -2.38828, 2.46087, -1.74879, 3.51871, -0.482813, 1.92373, 3.44552, -0.262567, -0.473412, 3.37064, -0.237721, 4.07911, -0.752111, 2.92916, 2.9111, 1.68266, 1.10603, 3.25174, 0.683675, -1.35548, -1.21734, -1.5069, -0.427693, 0.530782, 1.20027, -3.47536, -0.0160879, 0.484001, -1.44765, 4.0668, -0.348917, -1.56258, 2.89069, -3.01684, -0.561765, -1.65983, -0.712548, -2.08244, -1.19792, 1.6833, 4.30239, -1.09471, 3.24539, 5.0306, 0.755109, -4.37444, -1.64782, -3.08923, 2.51311, -0.866507, -3.39037, 0.690036, -1.67116, -2.01097, 0.686868, 1.24211, 2.63624, -1.11102, -1.66377, 2.62409, -3.00221, 1.24198, 0.123139, 2.27649, -2.98333, -1.24904, -2.76341, -2.00116, -2.02894, 4.54112, 1.98165, 0.653949, -0.417088, -0.64593, -1.15502, -1.61294, -0.877781, -0.73211, -0.565563, -1.47345, -1.47231, -3.5191, 1.65946, -0.286762, -3.03493, -0.447768, 0.752424, -2.18661, 3.07146, 3.32316, 3.72017, 2.35556, -2.13482, 0.0750451, -2.46687, 2.8893, 2.53213, 4.15955, -0.721215, 1.49025, 1.60715, 3.20052, -3.00527, 1.44061, 3.97286, 3.80538, -2.9574, -1.04693, -3.67654, 0.342036, -2.60325, 0.0416724, -2.75248, 2.3425, -2.00087, -2.26968, -1.30034, 1.96343, -0.685687, 3.65946,  
-4.26809, 0.196697, 1.88339, -1.89356, -0.990208, -2.42971, 3.80699, 0.0985449, 0.243592, -1.94319, -3.1433, 2.5239, 3.20436, -0.383771, -2.03689, -2.02074, -2.49381, -1.41371, -3.17485, 2.44298, 0.224784, 2.66063, 1.80254, -3.4361, 0.286996, -2.95742, 2.90086, -0.283229, -0.224216, -0.39996, -2.13263, -3.93681, -4.10418, 2.94353, 1.41594, 0.049049, -1.13799, 1.30799, 0.795448, -1.11047, -0.884473, -1.84241, -1.18471, 1.12696, -1.10007, -3.77071, -0.638658, -4.34875, -2.03212, -2.33866, -3.3518, -4.44945, 3.5513, 0.773974, -2.71501, 4.08514, -0.523094, 1.61211, -2.52314, 0.133378, 3.59077, -2.22398, 2.70565, 0.382258, -1.30352, -0.130592, -3.21567, 3.1662, 3.26254, -2.99766, -3.75072, -2.92844, 1.08619, -0.975434, -1.66108, 1.38614, 1.97117, -3.19536, 0.948052, -3.49882, 2.43544, -0.791936, 1.89659, 3.44552, -0.262567, -0.473412, 3.36954, -0.250042, 4.0233, -1.09375, 1.79654, 0.981427, -0.508464, -0.698079, 2.33795, 0.485748, -1.36713, -1.21754, -1.5069, -0.427893, 0.528879, 1.1828, -3.54474, -0.415873, -0.557446, -2.853, 2.6003, -1.82967, -2.77017, 2.40025, -3.07819, -0.562667, -1.65983, -0.712748, -2.1027, -1.27951, 1.5642, 4.11206, -1.37676, 2.88844, 4.47921, -0.430322, -5.78288, -2.30868, -3.2289, 2.51071, -0.866507, -3.39057, 0.632494, -1.93506, -2.398, 0.342493, 1.001, 2.39432, -1.69263, -3.04054, 1.1422, -3.61054, 1.11227, 0.12084, 2.27649, -2.98367, -1.32248, -3.17478, -2.84211, -3.09445, 3.4654, 0.8105, -0.902681, -2.15988, -1.75185, -1.49778, -1.66173, -0.878381, -0.73211, -0.565563, -1.50444, -1.70619, -4.2384, 0.315466, -2.05541, -4.8988, -2.05696, -0.224534, -2.54623, 2.9928, 3.31656, 3.72007, 2.35556, -2.13482, 0.0725451, -2.49897, 2.76895, 2.26929, 3.77562, -1.10111, 1.24208, 1.49976, 3.16958, -3.01165, 1.44011, 3.97286, 3.80538, -2.9574, -1.04693, -3.67654, 0.341536, -2.60415, 0.0402724, -2.75458, 2.341, -2.00227, -2.27078, -1.30084, 1.96343, -0.685687, 3.65946,  
-3.83615, 0.196697, 1.88339, -1.89356, -0.990208, -2.42971, 3.80699, 0.0985449, 0.243592, -1.94319, -3.1433, 2.5239, 3.20436, -0.383771, -2.03689, -2.02074, -2.49381, -1.41371, -3.17485, 2.44308, 0.225484, 2.66204, 1.80513, -3.43237, 0.288696, -2.95586, 2.90126, -0.283229, -0.224216, -0.39996, -2.13263, -3.93654, -4.09851, 2.9907, 1.61475, 0.594206, -0.245275, 2.21091, 1.36826, -0.862318, -0.817852, -1.83272, -1.18411, 1.12696, -1.10007, -3.76271, -0.544092, -3.90255, -0.906779, -0.542673, -1.35534, -2.52895, 5.11507, 1.66009, -2.37567, 4.14017, -0.521156, 1.61211, -2.52154, 0.172597, 3.85775, -1.36242, 4.18185, 1.78462, -0.396573, 0.925638, -1.74609, 4.22461, 3.71637, -2.90437, -3.74673, -2.92844, 1.08709, -0.928642, -1.35904, 2.28404, 3.3837, -2.02235, 1.71182, -2.19673, 3.93295, 0.0562643, 2.17652, 3.49678, -0.260192, -0.473412, 3.37014, -0.228546, 4.20345, -0.448127, 3.13139, 2.79559, 1.36015, 1.15159, 3.37367, 0.850277, -1.2739, -1.20188, -1.5058, -0.427893, 0.528879, 1.188, -3.47602, -0.0559419, 0.645645, -0.552721, 4.97099, -0.348485, -2.2397, 2.56386, -3.02949, -0.556067, -1.65983, -0.712748, -2.1027, -1.27435, 1.67233, 4.68986, 0.157485, 4.79542, 6.08715, 0.807881, -5.19132, -2.09215, -3.1581, 2.52031, -0.866507, -3.39057, 0.632386, -1.90619, -2.09452, 1.41837, 2.53663, 3.41742, -0.6698, -1.85697, 1.8893, -3.30475, 1.20877, 0.12814, 2.27649, -2.98367, -1.32222, -3.11948, -2.34953, -1.89376, 4.85344, 1.91138, 0.358697, -0.862827, -0.947385, -1.20226, -1.59533, -0.876081, -0.73211, -0.565563, -1.50414, -1.6736, -3.87102, 1.32188, -0.326681, -2.80956, -0.21909, 0.952392, -2.05033, 3.12707, 3.33396, 3.72067, 2.35556, -2.13482, 0.0725217, -2.49917, 2.80744, 2.45152, 4.16863, -0.567291, 1.67081, 1.69923, 3.23063, -3.00004, 1.44101, 3.97286, 3.80538, -2.9574, -1.04693, -3.67654, 0.341335, -2.60415, 0.0399062, -2.75473, 2.34094, -2.00237, -2.27068, -1.30084, 1.96343, -0.685687, 3.65946,  
-4.20137, 0.196697, 1.88339, -1.89356, -0.990208, -2.42971, 3.80699, 0.0985449, 0.243592, -1.94319, -3.1433, 2.5239, 3.20436, -0.383771, -2.03689, -2.02074, -2.49381, -1.41381, -3.17546, 2.43818, 0.209303, 2.6325, 1.77505, -3.45507, 0.27884, -2.95898, 2.90116, -0.283229, -0.224216, -0.39996, -2.13273, -3.94708, -4.17463, 2.70679, 1.01727, -0.283095, -1.20398, 1.42629, 0.920808, -1.00147, -0.830642, -1.83272, -1.18411, 1.12676, -1.10324, -3.82319, -0.83957, -4.6078, -2.10679, -2.06064, -3.00326, -4.10215, 3.90875, 1.11221, -2.45314, 4.13917, -0.521156, 1.61191, -2.52877, 0.0703496, 3.56092, -1.86858, 3.50699, 1.10329, -1.27046, -0.361604, -2.98097, 3.61883, 3.62466, -2.90457, -3.74673, -2.92854, 1.0807, -0.971172, -1.45007, 2.11967, 3.0511, -2.68711, 0.475915, -3.71772, 2.91443, -0.24842, 2.14901, 3.49678, -0.260192, -0.473412, 3.36904, -0.240847, 4.15286, -0.737936, 2.17336, 1.16117, -0.524994, -0.405184, 2.57472, 0.670483, -1.28425, -1.20194, -1.5058, -0.428093, 0.526993, 1.171, -3.53837, -0.412719, -0.304125, -1.86402, 3.59778, -1.64619, -3.21393, 2.15462, -3.08223, -0.556621, -1.65983, -0.712849, -2.12124, -1.35048, 1.56001, 4.50601, -0.126163, 4.4352, 5.5368, -0.303921, -6.35889, -2.62559, -3.27441, 2.5182, -0.866507, -3.39057, 0.580562, -2.13825, -2.43624, 1.09805, 2.30063, 3.17637, -1.23127, -3.10255, 0.652066, -3.80156, 1.09736, 0.126113, 2.27649, -2.98368, -1.38479, -3.47073, -3.06152, -2.80367, 3.90087, 0.860753, -1.00887, -2.33976, -1.86714, -1.49675, -1.64035, -0.876681, -0.73211, -0.565563, -1.53031, -1.87741, -4.48583, 0.190052, -1.81476, -4.38729, -1.58543, 0.11386, -2.37438, 3.05273, 3.32706, 3.72057, 2.35556, -2.13482, 0.0702305, -2.52981, 2.69458, 2.2099, 3.82214, -0.911158, 1.43999, 1.59422, 3.20009, -3.00642, 1.44051, 3.97286, 3.80538, -2.9574, -1.04693, -3.67654, 0.340835, -2.60505, 0.0385062, -2.75683, 2.33944, -2.00377, -2.27178, -1.30134, 1.96343, -0.685687, 3.65946,  
-3.98211, 0.196697, 1.88339, -1.89356, -0.990208, -2.42971, 3.80699, 0.0985449, 0.243592, -1.94319, -3.1433, 2.5239, 3.20436, -0.383771, -2.03689, -2.02074, -2.49381, -1.41381, -3.17546, 2.43828, 0.210003, 2.6333, 1.77504, -3.45462, 0.278996, -2.95812, 2.90156, -0.283229, -0.224216, -0.39996, -2.13273, -3.94688, -4.16963, 2.7486, 1.18282, 0.125687, -0.62665, 1.91377, 1.18204, -0.889818, -0.803312, -1.83111, -1.18401, 1.12676, -1.1035, -3.81656, -0.763109, -4.25489, -1.36535, -1.06574, -1.99353, -3.1436, 4.58741, 1.42715, -2.34574, 4.15167, -0.520659, 1.61191, -2.52747, 0.102167, 3.76098, -1.31889, 4.21088, 1.69976, -0.874364, 0.255903, -2.21622, 3.98425, 3.74238, -2.88381, -3.74592, -2.92854, 1.08159, -0.933603, -1.23833, 2.61656, 3.69835, -2.05436, 0.997968, -2.91353, 3.55493, 0.0173609, 2.21932, 3.50871, -0.259392, -0.473412, 3.36964, -0.223846, 4.27384, -0.370079, 2.81564, 2.17356, 0.608425, 0.467044, 2.97073, 0.811222, -1.24661, -1.19689, -1.50557, -0.428093, 0.526893, 1.1728, -3.49506, -0.185846, 0.351523, -0.713426, 4.7384, -0.828257, -2.84964, 2.27679, -3.0438, -0.551904, -1.65983, -0.712849, -2.12144, -1.35089, 1.6264, 4.85054, 0.652616, 5.18097, 6.10179, 0.410429, -5.85612, -2.42023, -3.20756, 2.5267, -0.866507, -3.39057, 0.579071, -2.12847, -2.27794, 1.63822, 2.98205, 3.54145, -0.923331, -2.51418, 1.21263, -3.5205, 1.18973, 0.132916, 2.27649, -2.98368, -1.38579, -3.45001, -2.84421, -2.24011, 4.5632, 1.38097, -0.445964, -1.61198, -1.27755, -1.23344, -1.57823, -0.87498, -0.73211, -0.565563, -1.53031, -1.86817, -4.35441, 0.604623, -0.99498, -3.28514, -0.54288, 0.866141, -1.99703, 3.16566, 3.34172, 3.72077, 2.35556, -2.13482, 0.0699303, -2.53303, 2.69396, 2.24733, 3.93673, -0.693276, 1.65793, 1.7152, 3.24104, -2.99802, 1.44106, 3.97286, 3.80538, -2.9574, -1.04693, -3.67654, 0.340335, -2.60595, 0.0376062, -2.75763, 2.33874, -2.00457, -2.2722, -1.30141, 1.96343, -0.685687, 3.65946,  
-4.08334, 0.196697, 1.88339, -1.89356, -0.990208, -2.42971, 3.80699, 0.0985449, 0.243592, -1.94319, -3.1433, 2.5239, 3.20436, -0.383771, -2.03689, -2.02074, -2.49381, -1.41381, -3.17556, 2.43606, 0.204942, 2.6229, 1.76109, -3.46507, 0.272606, -2.96052, 2.90156, -0.283229, -0.224216, -0.39996, -2.13273, -3.94741, -4.17946, 2.70967, 1.10963, 0.0103324, -0.78952, 1.73271, 1.04909, -0.93657, -0.808517, -1.83111, -1.18401, 1.12657, -1.1041, -3.82762, -0.814247, -4.36175, -1.60683, -1.47159, -2.45347, -3.57002, 4.19385, 1.21413, -2.38196, 4.15094, -0.520659, 1.61191, -2.53003, 0.0711103, 3.68717, -1.44679, 3.96142, 1.41543, -1.16269, -0.0791377, -2.58838, 3.71652, 3.68759, -2.88359, -3.74592, -2.92854, 1.07862, -0.948891, -1.2642, 2.5712, 3.62264, -2.16372, 0.747958, -3.30104, 3.18322, -0.136125, 2.2029, 3.50899, -0.259392, -0.473412, 3.36904, -0.228789, 4.26778, -0.404682, 2.64641, 1.83201, 0.159102, 0.0430808, 2.72507, 0.764588, -1.24418, -1.19617, -1.50557, -0.428293, 0.525793, 1.16447, -3.50642, -0.264159, 0.0970091, -1.14454, 4.24621, -1.13913, -2.99115, 2.20862, -3.04891, -0.549504, -1.65983, -0.712949, -2.13005, -1.38529, 1.58671, 4.78428, 0.537119, 4.94857, 5.73754, 0.00118566, -6.03273, -2.47265, -3.22474, 2.5289, -0.866507, -3.39057, 0.562567, -2.20639, -2.37076, 1.5487, 2.88849, 3.3875, -1.24678, -2.94918, 0.975813, -3.55526, 1.17924, 0.133514, 2.27649, -2.98368, -1.404, -3.54495, -3.01631, -2.4489, 4.29772, 1.04338, -0.855197, -1.95403, -1.42505, -1.25202, -1.58431, -0.874981, -0.73211, -0.565563, -1.5367, -1.92761, -4.51856, 0.332806, -1.3088, -3.60357, -0.819959, 0.709345, -2.04052, 3.15384, 3.3393, 3.72072, 2.35556, -2.13482, 0.0686892, -2.5463, 2.64201, 2.14473, 3.80024, -0.815929, 1.57631, 1.67624, 3.22555, -3.00317, 1.44056, 3.97286, 3.80538, -2.9574, -1.04693, -3.67654, 0.339835, -2.60685, 0.0364062, -2.75913, 2.3375, -2.00597, -2.2733, -1.30191, 1.96343, -0.685687, 3.65946,  
-4.05929, 0.196697, 1.88339, -1.89356, -0.990208, -2.42971, 3.80699, 0.0985449, 0.243592, -1.94319, -3.1433, 2.5239, 3.20436, -0.383771, -2.03689, -2.02074, -2.49381, -1.41381, -3.17566, 2.43576, 0.204341, 2.62099, 1.75657, -3.4697, 0.270269, -2.96147, 2.90156, -0.283229, -0.224216, -0.39996, -2.13273, -3.94778, -4.17972, 2.72057, 1.16921, 0.133575, -0.650627, 1.80865, 1.06169, -0.928682, -0.805559, -1.83091, -1.18401, 1.12657, -1.1045, -3.82641, -0.796499, -4.25385, -1.44096, -1.34004, -2.3543, -3.45801, 4.20869, 1.19404, -2.37682, 4.15164, -0.520659, 1.61191, -2.53028, 0.0743177, 3.7329, -1.33029, 4.02172, 1.42081, -1.17613, -0.0104165, -2.52637, 3.67814, 3.67676, -2.88184, -3.74592, -2.92854, 1.07812, -0.938106, -1.208, 2.66486, 3.72631, -2.02751, 0.859674, -3.19866, 3.18199, -0.159364, 2.2044, 3.51056, -0.259392, -0.473412, 3.36964, -0.221497, 4.30643, -0.319188, 2.7589, 2.01626, 0.34596, 0.122758, 2.73265, 0.783951, -1.23198, -1.19489, -1.50557, -0.428293, 0.525293, 1.16306, -3.49322, -0.207469, 0.225266, -1.0082, 4.30971, -0.986967, -2.86677, 2.2462, -3.02959, -0.54624, -1.65983, -0.712949, -2.13277, -1.39401, 1.59726, 4.86344, 0.672752, 4.94124, 5.63054, 0.0249238, -5.87386, -2.38469, -3.19403, 2.5339, -0.866507, -3.39057, 0.557314, -2.22417, -2.34816, 1.66921, 2.98527, 3.36279, -1.34499, -2.97257, 1.08422, -3.43288, 1.22239, 0.136841, 2.27649, -2.98368, -1.40763, -3.56405, -3.00144, -2.35649, 4.37799, 1.05081, -0.855353, -1.87773, -1.27468, -1.14509, -1.56006, -0.874182, -0.73211, -0.565563, -1.53806, -1.94292, -4.53877, 0.361227, -1.18083, -3.40267, -0.625738, 0.87506, -1.92736, 3.18652, 3.34172, 3.72072, 2.35556, -2.13482, 0.0679895, -2.55379, 2.61837, 2.10919, 3.76513, -0.81654, 1.59826, 1.69081, 3.22808, -3.00452, 1.44006, 3.97286, 3.80538, -2.9574, -1.04693, -3.67654, 0.339335, -2.60775, 0.0354083, -2.75993, 2.3368, -2.00717, -2.2744, -1.30241, 1.96343, -0.685687, 3.65946,  
-4.07093, 0.196697, 1.88339, -1.89356, -0.990208, -2.42971, 3.80699, 0.0985449, 0.243592, -1.94319, -3.1433, 2.5239, 3.20436, -0.383771, -2.03689, -2.02074, -2.49381, -1.41381, -3.17576, 2.43509, 0.203132, 2.61753, 1.74986, -3.47551, 0.267526, -2.96261, 2.90156, -0.283229, -0.224216, -0.39996, -2.13273, -3.94818, -4.18157, 2.71764, 1.18805, 0.185245, -0.597763, 1.81292, 1.03521, -0.935492, -0.80516, -1.83072, -1.18401, 1.12657, -1.1049, -3.82818, -0.800234, -4.21879, -1.40402, -1.36517, -2.40975, -3.4954, 4.11279, 1.12965, -2.38101, 4.15178, -0.520659, 1.61191, -2.53148, 0.0651519, 3.72784, -1.3006, 3.98723, 1.34711, -1.2609, -0.0535194, -2.58458, 3.58308, 3.65321, -2.88124, -3.74592, -2.92854, 1.07727, -0.939309, -1.19051, 2.69778, 3.7607, -1.9621, 0.876649, -3.22556, 3.07818, -0.217129, 2.19917, 3.51153, -0.259392, -0.473412, 3.36996, -0.219142, 4.3251, -0.282365, 2.77851, 2.05, 0.353057, 0.0605105, 2.666, 0.783261, -1.2243, -1.19375, -1.50557, -0.428305, 0.524761, 1.1604, -3.48804, -0.195665, 0.236777, -1.04456, 4.20842, -0.969931, -2.81895, 2.24815, -3.01938, -0.543488, -1.65983, -0.712954, -2.13628, -1.40703, 1.59432, 4.89149, 0.710601, 4.85142, 5.44984, -0.0573305, -5.81049, -2.34466, -3.18138, 2.53742, -0.866507, -3.39057, 0.550946, -2.25023, -2.35203, 1.71908, 3.00693, 3.29721, -1.49473, -3.0816, 1.0897, -3.36747, 1.2441, 0.138497, 2.27649, -2.98368, -1.41273, -3.59372, -3.02266, -2.34462, 4.35582, 0.968127, -0.948472, -1.90792, -1.23092, -1.08931, -1.55088, -0.87379, -0.73211, -0.565563, -1.54043, -1.96573, -4.58413, 0.326065, -1.17, -3.35387, -0.580785, 0.920129, -1.8834, 3.19783, 3.34216, 3.72072, 2.35556, -2.13482, 0.0672625, -2.56196, 2.59015, 2.06081, 3.70628, -0.85302, 1.58309, 1.68295, 3.22243, -3.00741, 1.43956, 3.97286, 3.80538, -2.9574, -1.04693, -3.67654, 0.338835, -2.60865, 0.0343085, -2.76073, 2.3358, -2.00857, -2.2755, -1.30291, 1.96343, -0.685687, 3.65946,  
-4.07468, 0.196697, 1.88339, -1.89356, -0.990208, -2.42971, 3.80699, 0.0985449, 0.243592, -1.94319, -3.1433, 2.5239, 3.20436, -0.383771, -2.03689, -2.02074, -2.49381, -1.41381, -3.17586, 2.43465, 0.202061, 2.61453, 1.74391, -3.48113, 0.264927, -2.96361, 2.90156, -0.283229, -0.224216, -0.39996, -2.13273, -3.94858, -4.18331, 2.71562, 1.21107, 0.246942, -0.5307, 1.83261, 1.02085, -0.936371, -0.803206, -1.83052, -1.18401, 1.12657, -1.1053, -3.82951, -0.801072, -4.1749, -1.34544, -1.35603, -2.42794, -3.49884, 4.04432, 1.0817, -2.38065, 4.15211, -0.520659, 1.61191, -2.53252, 0.057879, 3.72959, -1.25944, 3.96877, 1.29539, -1.32456, -0.0713885, -2.61406, 3.50855, 3.63451, -2.88014, -3.74592, -2.92854, 1.07667, -0.937732, -1.1674, 2.73639, 3.8, -1.88588, 0.912932, -3.22087, 3.00122, -0.262945, 2.19643, 3.51281, -0.259392, -0.473412, 3.37049, -0.215516, 4.34555, -0.240439, 2.80992, 2.1103, 0.397638, 0.0300259, 2.61634, 0.787014, -1.21571, -1.19255, -1.50557, -0.428306, 0.524261, 1.15823, -3.48153, -0.17799, 0.270654, -1.04187, 4.14799, -0.925078, -2.76089, 2.25318, -3.00795, -0.540523, -1.65983, -0.712955, -2.13958, -1.41837, 1.59328, 4.92558, 0.763044, 4.78151, 5.29654, -0.107915, -5.73401, -2.30026, -3.16759, 2.54103, -0.866507, -3.39057, 0.54495, -2.27216, -2.34939, 1.77759, 3.03728, 3.24211, -1.61798, -3.15706, 1.10991, -3.29817, 1.2663, 0.1401, 2.27649, -2.98368, -1.41654, -3.61632, -3.02865, -2.31411, 4.35259, 0.912178, -1.00804, -1.91149, -1.17621, -1.03168, -1.54161, -0.873389, -0.73211, -0.565563, -1.54199, -1.98255, -4.61534, 0.314553, -1.13135, -3.27663, -0.512901, 0.976281, -1.83542, 3.20953, 3.34262, 3.72072, 2.35556, -2.13482, 0.0665624, -2.56949, 2.56467, 2.01768, 3.65496, -0.882667, 1.57293, 1.67761, 3.21788, -3.00996, 1.43906, 3.97286, 3.80538, -2.9574, -1.04693, -3.67654, 0.338335, -2.60955, 0.0332249, -2.76153, 2.3348, -2.00997, -2.2766, -1.30341, 1.96343, -0.685687, 3.65946,  
-4.08048, 0.196697, 1.88339, -1.89356, -0.990208, -2.42971, 3.80699, 0.0985449, 0.243592, -1.94319, -3.1433, 2.5239, 3.20436, -0.383771, -2.03689, -2.02074, -2.49381, -1.41381, -3.17596, 2.43398, 0.200398, 2.61099, 1.73756, -3.48696, 0.262331, -2.96461, 2.90156, -0.283229, -0.224216, -0.39996, -2.13273, -3.94898, -4.18583, 2.70925, 1.22615, 0.299128, -0.471892, 1.84792, 1.00488, -0.936917, -0.80127, -1.83041, -1.18401, 1.12657, -1.1057, -3.83168, -0.806178, -4.1407, -1.29754, -1.35463, -2.45296, -3.5073, 3.97431, 1.03473, -2.37992, 4.15248, -0.520659, 1.61191, -2.53354, 0.0487987, 3.7239, -1.22942, 3.94454, 1.24134, -1.39209, -0.0950955, -2.6475, 3.43547, 3.61615, -2.87936, -3.74592, -2.92854, 1.07604, -0.937429, -1.15031, 2.76578, 3.82938, -1.82055, 0.939584, -3.22261, 2.92152, -0.308014, 2.19336, 3.5139, -0.259392, -0.473412, 3.371, -0.212425, 4.36218, -0.207467, 2.82815, 2.15531, 0.430308, -0.0098699, 2.56083, 0.78891, -1.20732, -1.19137, -1.50557, -0.428306, 0.52376, 1.15603, -3.47602, -0.165215, 0.296195, -1.04774, 4.081, -0.889634, -2.71385, 2.25045, -2.99817, -0.537627, -1.65983, -0.712955, -2.14282, -1.42961, 1.59121, 4.95362, 0.807222, 4.70844, 5.14651, -0.158059, -5.66753, -2.2671, -3.15806, 2.54456, -0.866507, -3.39057, 0.539089, -2.29323, -2.34915, 1.82825, 3.05904, 3.18515, -1.73602, -3.22973, 1.1204, -3.24126, 1.28402, 0.141556, 2.27649, -2.98368, -1.41986, -3.63721, -3.03395, -2.28808, 4.34002, 0.851619, -1.06893, -1.92273, -1.136, -0.984466, -1.53475, -0.87299, -0.73211, -0.565563, -1.5433, -1.99782, -4.64453, 0.304612, -1.09715, -3.21109, -0.459622, 1.01837, -1.79651, 3.21817, 3.34272, 3.72072, 2.35556, -2.13482, 0.0658624, -2.5769, 2.53964, 1.97551, 3.60444, -0.913111, 1.56027, 1.66998, 3.21228, -3.01284, 1.43856, 3.97286, 3.80538, -2.9574, -1.04693, -3.67654, 0.337835, -2.61045, 0.0321835, -2.76233, 2.3338, -2.01137, -2.2777, -1.30391, 1.96343, -0.685687, 3.65946,  
-4.08489, 0.196697, 1.88339, -1.89356, -0.990208, -2.42971, 3.80699, 0.0985449, 0.243592, -1.94319, -3.1433, 2.5239, 3.20436, -0.383771, -2.03689, -2.02074, -2.49381, -1.41381, -3.17606, 2.43326, 0.198504, 2.60733, 1.73118, -3.49268, 0.259771, -2.96561, 2.90156, -0.283229, -0.224216, -0.39996, -2.13273, -3.94942, -4.18897, 2.70106, 1.23895, 0.34932, -0.412252, 1.86635, 0.992122, -0.935619, -0.79921, -1.83038, -1.18401, 1.12657, -1.1061, -3.83411, -0.812735, -4.10826, -1.25033, -1.34768, -2.46862, -3.50635, 3.91412, 0.994199, -2.37774, 4.15293, -0.520659, 1.61191, -2.53454, 0.039406, 3.71715, -1.20196, 3.92232, 1.19345, -1.45495, -0.11384, -2.67268, 3.37024, 3.59985, -2.87852, -3.74592, -2.92854, 1.07546, -0.936789, -1.13471, 2.7918, 3.85517, -1.75762, 0.966243, -3.21843, 2.85083, -0.347527, 2.19063, 3.51497, -0.259392, -0.473412, 3.37156, -0.209241, 4.37707, -0.176903, 2.8425, 2.19864, 0.467896, -0.0429427, 2.50948, 0.79172, -1.1987, -1.19018, -1.50557, -0.428306, 0.52326, 1.15389, -3.47097, -0.152304, 0.323999, -1.04598, 4.02277, -0.850764, -2.66734, 2.24586, -2.98896, -0.534709, -1.65983, -0.712955, -2.14552, -1.44001, 1.58929, 4.98034, 0.850466, 4.63958, 5.00793, -0.198505, -5.60281, -2.23777, -3.15004, 2.5481, -0.866507, -3.39057, 0.533645, -2.3118, -2.34732, 1.87858, 3.07989, 3.13242, -1.84138, -3.2908, 1.12942, -3.18936, 1.30011, 0.142961, 2.27649, -2.98368, -1.42277, -3.65398, -3.03244, -2.25723, 4.32992, 0.798262, -1.11963, -1.93069, -1.10079, -0.94132, -1.52885, -0.872591, -0.73211, -0.565563, -1.54451, -2.01009, -4.66765, 0.303348, -1.05836, -3.14374, -0.407077, 1.05655, -1.76131, 3.22558, 3.34267, 3.72072, 2.35556, -2.13482, 0.0651629, -2.5841, 2.51551, 1.93586, 3.55724, -0.941583, 1.54804, 1.66216, 3.20656, -3.01582, 1.43806, 3.97286, 3.80538, -2.9574, -1.04693, -3.67654, 0.337335, -2.61135, 0.0312366, -2.76313, 2.3328, -2.01277, -2.2788, -1.30441, 1.96343, -0.685687, 3.65946,  
-4.08933, 0.196697, 1.88339, -1.89356, -0.990208, -2.42971, 3.80699, 0.0985449, 0.243592, -1.94319, -3.1433, 2.5239, 3.20436, -0.383771, -2.03689, -2.02074, -2.49381, -1.41381, -3.17616, 2.43248, 0.196477, 2.60356, 1.7248, -3.49828, 0.257261, -2.96661, 2.90156, -0.283229, -0.224216, -0.39996, -2.13273, -3.94991, -4.19275, 2.69148, 1.24934, 0.396132, -0.355483, 1.88436, 0.98023, -0.934105, -0.797161, -1.83038, -1.18401, 1.12657, -1.1065, -3.83669, -0.820628, -4.07902, -1.20663, -1.34031, -2.48115, -3.5022, 3.85832, 0.95545, -2.37545, 4.15339, -0.520659, 1.61191, -2.53545, 0.0297032, 3.70906, -1.17818, 3.89928, 1.14789, -1.5166, -0.131745, -2.69503, 3.30681, 3.58438, -2.87771, -3.74592, -2.92854, 1.0749, -0.936255, -1.12118, 2.81346, 3.87702, -1.69816, 0.991108, -3.21362, 2.78324, -0.384643, 2.18783, 3.51597, -0.259392, -0.473412, 3.37214, -0.206038, 4.39037, -0.149181, 2.85162, 2.23664, 0.503765, -0.0749129, 2.45928, 0.794507, -1.19028, -1.189, -1.50557, -0.428306, 0.52276, 1.1518, -3.46634, -0.140262, 0.349575, -1.04292, 3.96684, -0.813774, -2.62449, 2.2393, -2.98068, -0.5318, -1.65983, -0.712955, -2.14797, -1.45019, 1.58706, 5.00457, 0.890069, 4.57177, 4.87607, -0.234848, -5.54285, -2.21214, -3.14342, 2.5516, -0.866507, -3.39057, 0.528392, -2.32961, -2.34509, 1.92626, 3.09764, 3.08098, -1.94022, -3.34609, 1.13567, -3.14311, 1.3146, 0.144339, 2.27649, -2.98368, -1.42546, -3.66933, -3.02859, -2.22636, 4.31728, 0.747338, -1.16579, -1.93794, -1.07108, -0.902927, -1.52372, -0.872192, -0.73211, -0.565563, -1.54553, -2.02117, -4.68765, 0.306127, -1.01909, -3.07837, -0.357885, 1.08937, -1.73095, 3.23171, 3.34255, 3.72072, 2.35556, -2.13482, 0.064468, -2.59108, 2.4919, 1.89769, 3.51232, -0.968775, 1.53589, 1.65384, 3.20035, -3.01883, 1.43756, 3.97286, 3.80538, -2.9574, -1.04693, -3.67654, 0.336835, -2.61225, 0.0303239, -2.76393, 2.3318, -2.01417, -2.2799, -1.30491, 1.96343, -0.685687, 3.65946,  
-4.09352, 0.196697, 1.88339, -1.89356, -0.990208, -2.42971, 3.80699, 0.0985449, 0.243592, -1.94319, -3.1433, 2.5239, 3.20436, -0.383771, -2.03689, -2.02074, -2.49381, -1.41381, -3.17626, 2.43162, 0.194372, 2.59976, 1.71845, -3.50381, 0.254792, -2.96761, 2.90156, -0.283229, -0.224216, -0.39996, -2.13273, -3.95041, -4.19673, 2.68111, 1.2571, 0.439541, -0.302391, 1.90086, 0.969157, -0.932209, -0.795045, -1.83037, -1.18401, 1.12657, -1.1069, -3.8392, -0.828866, -4.05252, -1.16556, -1.33093, -2.48899, -3.4947, 3.80695, 0.919209, -2.37272, 4.15386, -0.520659, 1.61191, -2.53619, 0.0203074, 3.70019, -1.15731, 3.87555, 1.10615, -1.57598, -0.148864, -2.71496, 3.24591, 3.56978, -2.8769, -3.74592, -2.92854, 1.07435, -0.935604, -1.10886, 2.83226, 3.89558, -1.64151, 1.01441, -3.20806, 2.71923, -0.419216, 2.18509, 3.51693, -0.259392, -0.473412, 3.37272, -0.202799, 4.40291, -0.123485, 2.85727, 2.27113, 0.538707, -0.10481, 2.41027, 0.797556, -1.18198, -1.18781, -1.50557, -0.428307, 0.52226, 1.14975, -3.46209, -0.129443, 0.374035, -1.03698, 3.91508, -0.77692, -2.58444, 2.23084, -2.97332, -0.528885, -1.65983, -0.712955, -2.15015, -1.46007, 1.58449, 5.02558, 0.927568, 4.50593, 4.75123, -0.265743, -5.48687, -2.1894, -3.13826, 2.55498, -0.866507, -3.39057, 0.52364, -2.34624, -2.34266, 1.97135, 3.11321, 3.03076, -2.03248, -3.39511, 1.14013, -3.10107, 1.32737, 0.145655, 2.27649, -2.98368, -1.42802, -3.68305, -3.0229, -2.19646, 4.30277, 0.699348, -1.20748, -1.94397, -1.04583, -0.868567, -1.51949, -0.871793, -0.73211, -0.565563, -1.54653, -2.0317, -4.70432, 0.31219, -0.978941, -3.01398, -0.311429, 1.11764, -1.70432, 3.23672, 3.34236, 3.72072, 2.35556, -2.13482, 0.063801, -2.59778, 2.46896, 1.86125, 3.46982, -0.994546, 1.52431, 1.64552, 3.19379, -3.02185, 1.43706, 3.97286, 3.80538, -2.9574, -1.04693, -3.67654, 0.336335, -2.61315, 0.0294196, -2.76474, 2.3308, -2.01557, -2.281, -1.30541, 1.96343, -0.685687, 3.65946,  
-4.09796, 0.196697, 1.88339, -1.89356, -0.990208, -2.42971, 3.80699, 0.0985449, 0.243592, -1.94319, -3.1433, 2.5239, 3.20436, -0.383771, -2.03689, -2.02074, -2.49381, -1.41381, -3.17636, 2.43069, 0.192207, 2.59596, 1.71211, -3.50928, 0.252358, -2.96861, 2.90156, -0.283229, -0.224216, -0.39996, -2.13273, -3.95091, -4.20085, 2.66983, 1.26199, 0.478557, -0.253822, 1.9162, 0.959152, -0.92988, -0.792807, -1.83036, -1.18401, 1.12657, -1.1073, -3.84166, -0.837693, -4.02965, -1.12871, -1.32212, -2.49554, -3.48689, 3.75822, 0.885099, -2.36995, 4.15434, -0.520659, 1.61191, -2.53683, 0.0106957, 3.69036, -1.14076, 3.84971, 1.06706, -1.63369, -0.166643, -2.73385, 3.18704, 3.55556, -2.8761, -3.74592, -2.92854, 1.07379, -0.935149, -1.0978, 2.84844, 3.91037, -1.58837, 1.03492, -3.20284, 2.65698, -0.452753, 2.18231, 3.51788, -0.259392, -0.473412, 3.37332, -0.199628, 4.41474, -0.100093, 2.85909, 2.30139, 0.570654, -0.134379, 2.36104, 0.800629, -1.17372, -1.18662, -1.50557, -0.428307, 0.52176, 1.14775, -3.4581, -0.120159, 0.396201, -1.03065, 3.86484, -0.742833, -2.54803, 2.22063, -2.96633, -0.52596, -1.65983, -0.712955, -2.15216, -1.46954, 1.58187, 5.04335, 0.962696, 4.44131, 4.63208, -0.293707, -5.43578, -2.17017, -3.13397, 2.55834, -0.866507, -3.39057, 0.519401, -2.36218, -2.34009, 2.01299, 3.12547, 2.98094, -2.11961, -3.43942, 1.14157, -3.06353, 1.3386, 0.146954, 2.27649, -2.98368, -1.43048, -3.69581, -3.01573, -2.16778, 4.28497, 0.652368, -1.2458, -1.95033, -1.0257, -0.838687, -1.51607, -0.871394, -0.73211, -0.565563, -1.54751, -2.0419, -4.71881, 0.32045, -0.938466, -2.95192, -0.269183, 1.14009, -1.6821, 3.24035, 3.34214, 3.72072, 2.35556, -2.13482, 0.0631801, -2.60398, 2.44698, 1.82615, 3.42858, -1.01979, 1.51238, 1.63647, 3.18671, -3.02488, 1.43656, 3.97286, 3.80538, -2.9574, -1.04693, -3.67654, 0.335835, -2.61405, 0.0285163, -2.76555, 2.32979, -2.01697, -2.2821, -1.30591, 1.96343, -0.685687, 3.65946,  
-4.1025, 0.196697, 1.88339, -1.89356, -0.990208, -2.42971, 3.80699, 0.0985449, 0.243592, -1.94319, -3.1433, 2.5239, 3.20436, -0.383771, -2.03689, -2.02074, -2.49381, -1.41381, -3.17646, 2.42974, 0.190001, 2.59219, 1.70585, -3.51467, 0.249962, -2.96961, 2.90156, -0.283229, -0.224216, -0.39996, -2.13273, -3.95141, -4.20516, 2.65744, 1.26414, 0.513699, -0.20859, 1.93132, 0.950433, -0.926865, -0.790314, -1.83032, -1.18401, 1.12657, -1.1077, -3.84409, -0.847093, -4.00969, -1.09483, -1.3129, -2.50038, -3.47828, 3.71193, 0.853466, -2.36699, 4.15482, -0.520659, 1.61191, -2.53743, 0.000761553, 3.67982, -1.12725, 3.823, 1.03026, -1.68966, -0.184478, -2.75044, 3.13058, 3.54208, -2.8753, -3.74592, -2.92854, 1.0732, -0.934939, -1.08768, 2.86343, 3.92282, -1.53802, 1.05345, -3.19714, 2.5974, -0.485444, 2.1798, 3.51882, -0.259392, -0.473412, 3.37391, -0.196688, 4.4259, -0.0781069, 2.85907, 2.32897, 0.600623, -0.162655, 2.31271, 0.803843, -1.16541, -1.18542, -1.50557, -0.428307, 0.52126, 1.14577, -3.45439, -0.111624, 0.41691, -1.02308, 3.81718, -0.710423, -2.51376, 2.20916, -2.95944, -0.523013, -1.65983, -0.712955, -2.15408, -1.47828, 1.5793, 5.05861, 0.995648, 4.3786, 4.51922, -0.318246, -5.38825, -2.15383, -3.13038, 2.56169, -0.866507, -3.39057, 0.515528, -2.37714, -2.33685, 2.05157, 3.13517, 2.93269, -2.20092, -3.47895, 1.14047, -3.02903, 1.34821, 0.148245, 2.27649, -2.98368, -1.43279, -3.70689, -3.00601, -2.13955, 4.26547, 0.608113, -1.27982, -1.95654, -1.00977, -0.812134, -1.51354, -0.870996, -0.73211, -0.565563, -1.5484, -2.05136, -4.73094, 0.330713, -0.898478, -2.89198, -0.230428, 1.15749, -1.66338, 3.24275, 3.34188, 3.72072, 2.35556, -2.13482, 0.0625859, -2.60998, 2.4255, 1.79179, 3.38789, -1.04458, 1.50012, 1.62675, 3.17925, -3.02791, 1.43606, 3.97286, 3.80538, -2.9574, -1.04693, -3.67654, 0.335335, -2.61495, 0.0276126, -2.76636, 2.32879, -2.01837, -2.2832, -1.30641, 1.96343, -0.685687, 3.65946,  
-4.10727, 0.196697, 1.88339, -1.89356, -0.990208, -2.42971, 3.80699, 0.0985449, 0.243592, -1.94319, -3.1433, 2.5239, 3.20436, -0.383771, -2.03689, -2.02074, -2.49381, -1.41381, -3.17657, 2.42876, 0.187755, 2.5885, 1.69983, -3.51986, 0.24762, -2.97061, 2.90156, -0.283229, -0.224216, -0.39996, -2.13273, -3.95191, -4.20985, 2.64369, 1.26345, 0.544598, -0.167366, 1.94485, 0.942504, -0.923019, -0.787533, -1.83024, -1.18401, 1.12657, -1.1081, -3.84653, -0.856951, -3.99183, -1.06383, -1.30389, -2.50447, -3.46973, 3.6662, 0.823876, -2.3638, 4.15529, -0.520659, 1.61191, -2.53803, -0.0092971, 3.66899, -1.11608, 3.79466, 0.994822, -1.74376, -0.202336, -2.76554, 3.07617, 3.52933, -2.8745, -3.74592, -2.92854, 1.07258, -0.934824, -1.07817, 2.87717, 3.93295, -1.49078, 1.07012, -3.19172, 2.5406, -0.517235, 2.17758, 3.51977, -0.259392, -0.473412, 3.37451, -0.19412, 4.43644, -0.0578094, 2.8568, 2.35332, 0.628306, -0.190185, 2.26494, 0.806883, -1.15705, -1.18421, -1.50557, -0.428307, 0.52076, 1.14376, -3.45111, -0.104213, 0.435176, -1.01479, 3.77185, -0.679725, -2.48211, 2.19636, -2.95268, -0.520048, -1.65983, -0.712955, -2.15595, -1.48663, 1.57663, 5.07047, 1.02596, 4.31776, 4.41237, -0.339432, -5.34419, -2.14032, -3.12753, 2.56504, -0.866507, -3.39057, 0.511923, -2.39125, -2.33324, 2.08637, 3.1432, 2.88673, -2.27648, -3.51416, 1.13631, -2.99754, 1.3564, 0.14952, 2.27649, -2.98368, -1.43497, -3.71625, -2.99376, -2.11314, 4.2449, 0.566787, -1.31078, -1.96389, -0.998602, -0.788191, -1.51176, -0.870597, -0.73211, -0.565563, -1.54913, -2.05992, -4.74062, 0.341499, -0.86122, -2.83587, -0.196297, 1.17007, -1.64734, 3.24447, 3.34157, 3.72072, 2.35556, -2.13482, 0.0620236, -2.61589, 2.40427, 1.75769, 3.34745, -1.06884, 1.48795, 1.61673, 3.17166, -3.03091, 1.43556, 3.97286, 3.80538, -2.9574, -1.04693, -3.67654, 0.334835, -2.61585, 0.0267086, -2.76717, 2.32779, -2.01977, -2.2843, -1.30691, 1.96343, -0.685687, 3.65946,  
-4.11203, 0.196697, 1.88339, -1.89356, -0.990208, -2.42971, 3.80699, 0.0985449, 0.243592, -1.94319, -3.1433, 2.5239, 3.20436, -0.383771, -2.03689, -2.02074, -2.49381, -1.41381, -3.17668, 2.42774, 0.18546, 2.58484, 1.69402, -3.52487, 0.245311, -2.97161, 2.90156, -0.283229, -0.224216, -0.39996, -2.13273, -3.95241, -4.21503, 2.62858, 1.26028, 0.571674, -0.130096, 1.95647, 0.935382, -0.918435, -0.784569, -1.83015, -1.18401, 1.12657, -1.1085, -3.84898, -0.867187, -3.97477, -1.03399, -1.29379, -2.50667, -3.46023, 3.62143, 0.796615, -2.36019, 4.15577, -0.520659, 1.61191, -2.5386, -0.019319, 3.65843, -1.10581, 3.76571, 0.961361, -1.79531, -0.219408, -2.77929, 3.02423, 3.51702, -2.8737, -3.74592, -2.92854, 1.07196, -0.934596, -1.06871, 2.88956, 3.94041, -1.44692, 1.08512, -3.18609, 2.48726, -0.547482, 2.1756, 3.52074, -0.259392, -0.473412, 3.37511, -0.191766, 4.44661, -0.0393752, 2.85152, 2.37472, 0.654907, -0.215986, 2.21833, 0.809854, -1.14865, -1.18299, -1.50557, -0.428307, 0.52026, 1.14177, -3.44813, -0.0979307, 0.451203, -1.00451, 3.73027, -0.649829, -2.45319, 2.18245, -2.94606, -0.517074, -1.65983, -0.712955, -2.15768, -1.49473, 1.57394, 5.07941, 1.0543, 4.25973, 4.31224, -0.356839, -5.30335, -2.12931, -3.12534, 2.56836, -0.866507, -3.39057, 0.50886, -2.40448, -2.32922, 2.11758, 3.14966, 2.8432, -2.34614, -3.54446, 1.1299, -2.96926, 1.36329, 0.150766, 2.27649, -2.98368, -1.43695, -3.72407, -2.97931, -2.08867, 4.22337, 0.527898, -1.33908, -1.97199, -0.991512, -0.766875, -1.51053, -0.870199, -0.73211, -0.565563, -1.54971, -2.06746, -4.74756, 0.353182, -0.825986, -2.78302, -0.166129, 1.17854, -1.63357, 3.24563, 3.34121, 3.72072, 2.35556, -2.13482, 0.0614996, -2.62168, 2.38346, 1.7242, 3.30801, -1.09172, 1.4766, 1.60693, 3.16404, -3.03391, 1.43506, 3.97286, 3.80538, -2.9574, -1.04693, -3.67654, 0.334335, -2.61675, 0.0258048, -2.76798, 2.32678, -2.02117, -2.2854, -1.30741, 1.96343, -0.685687, 3.65946,  
-4.11666, 0.196697, 1.88339, -1.89356, -0.990208, -2.42971, 3.80699, 0.0985449, 0.243592, -1.94319, -3.1433, 2.5239, 3.20436, -0.383771, -2.03689, -2.02074, -2.49381, -1.41381, -3.17681, 2.42667, 0.183101, 2.58116, 1.6883, -3.52979, 0.24301, -2.97261, 2.90156, -0.283229, -0.224216, -0.39996, -2.13273, -3.95291, -4.22056, 2.61248, 1.25505, 0.595415, -0.0961995, 1.96674, 0.928942, -0.913349, -0.781455, -1.83005, -1.18401, 1.12657, -1.1089, -3.85141, -0.877714, -3.95816, -1.00494, -1.2819, -2.50612, -3.44937, 3.57839, 0.771447, -2.3561, 4.15626, -0.520659, 1.61191, -2.53914, -0.0292371, 3.64843, -1.09539, 3.73724, 0.930509, -1.84432, -0.235621, -2.79147, 2.97494, 3.50531, -2.87291, -3.74592, -2.92854, 1.07134, -0.934174, -1.05899, 2.90122, 3.9453, -1.4062, 1.09837, -3.18001, 2.43733, -0.57582, 2.17413, 3.52176, -0.259392, -0.473412, 3.37571, -0.189414, 4.45668, -0.0222717, 2.84351, 2.39369, 0.681102, -0.23977, 2.17338, 0.813071, -1.14025, -1.18177, -1.50557, -0.428307, 0.519763, 1.13981, -3.44517, -0.0924133, 0.465639, -0.991851, 3.69306, -0.619903, -2.42616, 2.16767, -2.93956, -0.514114, -1.65983, -0.712955, -2.15931, -1.50267, 1.57129, 5.08647, 1.08131, 4.20491, 4.21823, -0.370842, -5.265, -2.12015, -3.12374, 2.57165, -0.866507, -3.39057, 0.506089, -2.41704, -2.32437, 2.1461, 3.15441, 2.80146, -2.41044, -3.56979, 1.12201, -2.94362, 1.36906, 0.15199, 2.27649, -2.98368, -1.43882, -3.73067, -2.96299, -2.0657, 4.20053, 0.490858, -1.36457, -1.98023, -0.987675, -0.74782, -1.50966, -0.8698, -0.73211, -0.565563, -1.55023, -2.07403, -4.75218, 0.366428, -0.791351, -2.73213, -0.138585, 1.18366, -1.62166, 3.2463, 3.34081, 3.72072, 2.35556, -2.13482, 0.060993, -2.62736, 2.36331, 1.69183, 3.27015, -1.11288, 1.46604, 1.59734, 3.15641, -3.0369, 1.43456, 3.97286, 3.80538, -2.9574, -1.04693, -3.67654, 0.333835, -2.61765, 0.0249017, -2.76879, 2.32578, -2.02257, -2.2865, -1.30791, 1.96343, -0.685687, 3.65946,  
-4.12118, 0.196697, 1.88339, -1.89356, -0.990208, -2.42971, 3.80699, 0.0985449, 0.243592, -1.94319, -3.1433, 2.5239, 3.20436, -0.383771, -2.03689, -2.02074, -2.49381, -1.41381, -3.17697, 2.42551, 0.180666, 2.57746, 1.68264, -3.53465, 0.24071, -2.9736, 2.90156, -0.283229, -0.224216, -0.39996, -2.13273, -3.95341, -4.22627, 2.59557, 1.24779, 0.615979, -0.0651638, 1.97612, 0.923337, -0.907687, -0.778069, -1.82995, -1.18401, 1.12657, -1.1093, -3.85385, -0.888465, -3.94234, -0.97733, -1.26828, -2.50251, -3.43729, 3.53768, 0.748558, -2.35133, 4.15677, -0.520659, 1.61191, -2.53962, -0.0390409, 3.63869, -1.08543, 3.70909, 0.90261, -1.89077, -0.251265, -2.80139, 2.92873, 3.49402, -2.87213, -3.74592, -2.92854, 1.07073, -0.93362, -1.04937, 2.91222, 3.94794, -1.36827, 1.10971, -3.17338, 2.39089, -0.601957, 2.17314, 3.5228, -0.259392, -0.473412, 3.37631, -0.187027, 4.46642, -0.00627809, 2.83318, 2.41041, 0.706851, -0.261134, 2.13031, 0.816635, -1.13199, -1.18065, -1.50557, -0.428307, 0.519282, 1.13786, -3.44222, -0.0872871, 0.479074, -0.977282, 3.66011, -0.590083, -2.40084, 2.15205, -2.93325, -0.51126, -1.65983, -0.712955, -2.16087, -1.51051, 1.56871, 5.0923, 1.10734, 4.15318, 4.12995, -0.382526, -5.22937, -2.11245, -3.12282, 2.57484, -0.866507, -3.39057, 0.503444, -2.42894, -2.31841, 2.1723, 3.15731, 2.76148, -2.46922, -3.59102, 1.11228, -2.9201, 1.37369, 0.153199, 2.27649, -2.98368, -1.44057, -3.73618, -2.94414, -2.0437, 4.17646, 0.45602, -1.38662, -1.98876, -0.987183, -0.730748, -1.50909, -0.869402, -0.73211, -0.565563, -1.55073, -2.07997, -4.75448, 0.381758, -0.756619, -2.68261, -0.113466, 1.18561, -1.61153, 3.24666, 3.34036, 3.72072, 2.35556, -2.13482, 0.0604912, -2.63293, 2.34378, 1.66069, 3.23379, -1.13272, 1.45586, 1.5878, 3.1488, -3.03991, 1.43406, 3.97286, 3.80538, -2.9574, -1.04693, -3.67654, 0.333335, -2.61855, 0.023999, -2.7696, 2.32478, -2.02397, -2.2876, -1.30841, 1.96343, -0.685687, 3.65946,  
-4.12556, 0.196697, 1.88339, -1.89356, -0.990208, -2.42971, 3.80699, 0.0985449, 0.243592, -1.94319, -3.1433, 2.5239, 3.20436, -0.383771, -2.03689, -2.02074, -2.49381, -1.41381, -3.17715, 2.42429, 0.178176, 2.57377, 1.67703, -3.53946, 0.238415, -2.97459, 2.90156, -0.283229, -0.224216, -0.39996, -2.13273, -3.95392, -4.23208, 2.57794, 1.23873, 0.633876, -0.0364589, 1.9849, 0.918605, -0.901311, -0.774281, -1.82985, -1.18401, 1.12657, -1.1097, -3.85634, -0.899583, -3.92768, -0.951292, -1.2532, -2.49587, -3.42347, 3.49994, 0.728409, -2.34548, 4.15733, -0.520659, 1.61191, -2.54005, -0.0488046, 3.62876, -1.07653, 3.68112, 0.877648, -1.93426, -0.26577, -2.80862, 2.88599, 3.48331, -2.87139, -3.74592, -2.92854, 1.07011, -0.932953, -1.04011, 2.92242, 3.94862, -1.33221, 1.1196, -3.16585, 2.34798, -0.625782, 2.17228, 3.52379, -0.259392, -0.473412, 3.37691, -0.18456, 4.47563, 0.00871979, 2.82118, 2.42563, 0.732355, -0.279483, 2.08908, 0.820081, -1.12407, -1.17971, -1.50557, -0.428307, 0.518839, 1.13594, -3.43918, -0.0820937, 0.492459, -0.960507, 3.63114, -0.56046, -2.37711, 2.13555, -2.92724, -0.508577, -1.65983, -0.712955, -2.16235, -1.5182, 1.56629, 5.09748, 1.13284, 4.10456, 4.0472, -0.392565, -5.19624, -2.10581, -3.1227, 2.5779, -0.866507, -3.39057, 0.500862, -2.44016, -2.31131, 2.19644, 3.15861, 2.72339, -2.52241, -3.60887, 1.10065, -2.89835, 1.37724, 0.154401, 2.27649, -2.98368, -1.44226, -3.74072, -2.92282, -2.02249, 4.15167, 0.423761, -1.4049, -1.99754, -0.989827, -0.715466, -1.50878, -0.869003, -0.73211, -0.565563, -1.55122, -2.08521, -4.75386, 0.399541, -0.721344, -2.63391, -0.0904544, 1.18469, -1.60293, 3.24688, 3.33983, 3.72072, 2.35556, -2.13482, 0.0599913, -2.63831, 2.32492, 1.6309, 3.19879, -1.15165, 1.4459, 1.57841, 3.14135, -3.04291, 1.43356, 3.97286, 3.80538, -2.9574, -1.04693, -3.67654, 0.332835, -2.61945, 0.0230968, -2.7704, 2.32378, -2.02537, -2.2887, -1.30891, 1.96343, -0.685687, 3.65946,  
-4.1299, 0.196697, 1.88339, -1.89356, -0.990208, -2.42971, 3.80699, 0.0985449, 0.243592, -1.94319, -3.1433, 2.5239, 3.20436, -0.383771, -2.03689, -2.02074, -2.49381, -1.41381, -3.17734, 2.42304, 0.175652, 2.57015, 1.67149, -3.54421, 0.23614, -2.97554, 2.90156, -0.283229, -0.224216, -0.39996, -2.13273, -3.95442, -4.23797, 2.55965, 1.22825, 0.649612, -0.00995916, 1.99283, 0.914329, -0.894448, -0.770208, -1.82975, -1.18401, 1.12657, -1.1101, -3.85896, -0.911172, -3.91417, -0.926642, -1.2378, -2.4876, -3.40874, 3.46407, 0.710073, -2.33895, 4.15793, -0.520659, 1.61191, -2.54047, -0.0586163, 3.61862, -1.06862, 3.65313, 0.854419, -1.97562, -0.279595, -2.8142, 2.84582, 3.47292, -2.87067, -3.74592, -2.92854, 1.0695, -0.932187, -1.03098, 2.93187, 3.94768, -1.29758, 1.12836, -3.15772, 2.30748, -0.648025, 2.17142, 3.52468, -0.259392, -0.473412, 3.37751, -0.182, 4.48452, 0.0229461, 2.80782, 2.43929, 0.756701, -0.29594, 2.04873, 0.823157, -1.11647, -1.17889, -1.50557, -0.428307, 0.518425, 1.13406, -3.43596, -0.0766863, 0.505934, -0.942593, 3.60445, -0.531644, -2.35482, 2.11816, -2.92154, -0.505967, -1.65983, -0.712955, -2.16376, -1.52573, 1.56402, 5.10226, 1.15764, 4.05786, 3.96865, -0.401616, -5.16524, -2.10004, -3.12332, 2.58087, -0.866507, -3.39057, 0.498337, -2.45099, -2.30352, 2.2188, 3.15847, 2.68658, -2.57133, -3.62433, 1.08747, -2.8782, 1.37998, 0.155601, 2.27649, -2.98368, -1.44391, -3.74461, -2.90008, -2.00235, 4.12619, 0.393359, -1.42036, -2.00662, -0.995121, -0.701746, -1.50865, -0.868605, -0.73211, -0.565563, -1.55167, -2.08978, -4.75105, 0.418648, -0.686437, -2.58646, -0.0693591, 1.18134, -1.5956, 3.24705, 3.33921, 3.72072, 2.35556, -2.13482, 0.0594957, -2.64353, 2.30662, 1.60205, 3.1647, -1.17009, 1.43611, 1.56923, 3.13413, -3.04591, 1.43306, 3.97286, 3.80538, -2.9574, -1.04693, -3.67654, 0.332335, -2.62035, 0.0221951, -2.77121, 2.32277, -2.02677, -2.2898, -1.30941, 1.96343, -0.685687, 3.65946,  
-4.13409, 0.196697, 1.88339, -1.89356, -0.990208, -2.42971, 3.80699, 0.0985449, 0.243592, -1.94319, -3.1433, 2.5239, 3.20436, -0.383771, -2.03689, -2.02074, -2.49381, -1.41381, -3.17754, 2.42177, 0.173114, 2.56659, 1.66602, -3.54889, 0.233938, -2.97643, 2.90156, -0.283229, -0.224216, -0.39996, -2.13273, -3.95493, -4.2439, 2.54093, 1.21683, 0.663787, 0.0148183, 2.00025, 0.910715, -0.886845, -0.765894, -1.82965, -1.18401, 1.12657, -1.1105, -3.86165, -0.923043, -3.90138, -0.902685, -1.22202, -2.47767, -3.39286, 3.4299, 0.693632, -2.33174, 4.15857, -0.520659, 1.61191, -2.54087, -0.0684724, 3.60843, -1.06134, 3.6255, 0.832995, -2.0147, -0.292319, -2.81808, 2.80832, 3.46291, -2.86995, -3.74592, -2.92854, 1.06888, -0.931328, -1.02177, 2.94078, 3.94564, -1.26387, 1.13661, -3.14842, 2.26943, -0.66876, 2.17057, 3.52549, -0.259392, -0.473412, 3.37811, -0.179368, 4.49315, 0.0366435, 2.79351, 2.45183, 0.780332, -0.310394, 2.00913, 0.825874, -1.10912, -1.17815, -1.50557, -0.428307, 0.518022, 1.13223, -3.43261, -0.0710812, 0.519674, -0.923505, 3.58001, -0.50321, -2.33376, 2.10002, -2.91621, -0.503375, -1.65983, -0.712955, -2.16514, -1.53312, 1.56181, 5.10668, 1.18197, 4.01318, 3.89453, -0.409343, -5.13569, -2.09504, -3.12462, 2.58381, -0.866507, -3.39057, 0.495905, -2.46139, -2.2953, 2.24002, 3.15747, 2.6514, -2.6159, -3.63712, 1.07356, -2.85947, 1.38206, 0.1568, 2.27649, -2.98368, -1.4455, -3.74759, -2.87609, -1.98278, 4.10067, 0.365055, -1.43287, -2.01538, -1.00227, -0.689439, -1.50865, -0.868208, -0.73211, -0.565563, -1.55207, -2.09355, -4.7461, 0.438956, -0.651858, -2.53988, -0.0494115, 1.17639, -1.58911, 3.24718, 3.33854, 3.72072, 2.35556, -2.13482, 0.0590182, -2.6486, 2.28886, 1.57407, 3.13148, -1.18799, 1.42665, 1.56038, 3.12719, -3.04891, 1.43256, 3.97286, 3.80538, -2.9574, -1.04693, -3.67654, 0.331835, -2.62125, 0.0212937, -2.77201, 2.32177, -2.02817, -2.2909, -1.30991, 1.96343, -0.685687, 3.65946,  
-4.13819, 0.196697, 1.88339, -1.89356, -0.990208, -2.42971, 3.80699, 0.0985449, 0.243592, -1.94319, -3.1433, 2.5239, 3.20436, -0.383771, -2.03689, -2.02074, -2.49381, -1.41381, -3.17773, 2.42051, 0.170567, 2.56307, 1.66057, -3.55349, 0.231865, -2.97719, 2.90156, -0.283229, -0.224216, -0.39996, -2.13273, -3.95544, -4.24986, 2.5219, 1.20459, 0.676276, 0.0376118, 2.00693, 0.907654, -0.878499, -0.761412, -1.82955, -1.18401, 1.12657, -1.1109, -3.8644, -0.935016, -3.88921, -0.879498, -1.20651, -2.46663, -3.37652, 3.39667, 0.678893, -2.32384, 4.15923, -0.520659, 1.61191, -2.54127, -0.0783753, 3.59826, -1.05485, 3.59808, 0.813017, -2.05177, -0.304176, -2.82095, 2.77324, 3.45327, -2.86923, -3.74592, -2.92854, 1.06826, -0.930408, -1.0125, 2.94919, 3.9425, -1.23146, 1.14396, -3.13827, 2.23344, -0.688274, 2.16976, 3.52622, -0.259392, -0.473412, 3.37871, -0.1767, 4.50144, 0.0497624, 2.77823, 2.4627, 0.802804, -0.323337, 1.96988, 0.828131, -1.10204, -1.17749, -1.50557, -0.428307, 0.517621, 1.13041, -3.42925, -0.0655581, 0.532969, -0.903936, 3.55725, -0.475634, -2.31414, 2.08117, -2.91128, -0.500799, -1.65983, -0.712955, -2.16649, -1.54037, 1.55953, 5.11018, 1.20528, 3.97047, 3.82487, -0.415929, -5.10754, -2.09091, -3.12659, 2.5867, -0.866507, -3.39057, 0.493591, -2.47134, -2.28704, 2.25984, 3.15562, 2.61798, -2.65619, -3.64734, 1.05905, -2.84232, 1.3835, 0.157997, 2.27649, -2.98368, -1.44702, -3.74954, -2.85132, -1.96407, 4.07496, 0.338737, -1.44307, -2.02399, -1.01099, -0.678657, -1.50874, -0.86781, -0.73211, -0.565563, -1.55245, -2.09636, -4.73923, 0.459867, -0.618568, -2.49506, -0.030983, 1.17003, -1.5834, 3.24717, 3.33784, 3.72072, 2.35556, -2.13482, 0.0585785, -2.6535, 2.27148, 1.54672, 3.09905, -1.20531, 1.41753, 1.55184, 3.12051, -3.05191, 1.43206, 3.97286, 3.80538, -2.9574, -1.04693, -3.67654, 0.331335, -2.62215, 0.0203926, -2.77282, 2.32077, -2.02957, -2.292, -1.31041, 1.96343, -0.685687, 3.65946,  
-4.14232, 0.196697, 1.88339, -1.89356, -0.990208, -2.42971, 3.80699, 0.0985449, 0.243592, -1.94319, -3.1433, 2.5239, 3.20436, -0.383771, -2.03689, -2.02074, -2.49381, -1.41381, -3.17793, 2.41925, 0.16802, 2.55954, 1.65513, -3.55803, 0.229921, -2.97785, 2.90156, -0.283229, -0.224216, -0.39996, -2.13273, -3.95596, -4.25583, 2.50268, 1.19169, 0.687149, 0.0583545, 2.01266, 0.904874, -0.869655, -0.75685, -1.82945, -1.18401, 1.12657, -1.1113, -3.86718, -0.946972, -3.87766, -0.857233, -1.19172, -2.45502, -3.36032, 3.36359, 0.6652, -2.31561, 4.15987, -0.520659, 1.61191, -2.54167, -0.0883037, 3.58807, -1.0494, 3.57049, 0.793901, -2.08751, -0.315811, -2.82358, 2.74001, 3.4439, -2.86851, -3.74592, -2.92854, 1.06765, -0.92944, -1.00334, 2.95701, 3.93827, -1.20046, 1.15013, -3.12779, 2.19886, -0.706815, 2.16904, 3.5269, -0.259392, -0.473412, 3.37931, -0.173991, 4.50935, 0.0622874, 2.76203, 2.47173, 0.823822, -0.335524, 1.9307, 0.8299, -1.09524, -1.17688, -1.50557, -0.428307, 0.51722, 1.12861, -3.42591, -0.0601938, 0.545521, -0.884284, 3.53554, -0.449257, -2.29598, 2.06172, -2.90675, -0.498247, -1.65983, -0.712955, -2.16782, -1.54749, 1.55719, 5.11259, 1.22727, 3.92932, 3.7591, -0.421713, -5.08057, -2.08771, -3.12919, 2.58955, -0.866507, -3.39057, 0.491413, -2.48089, -2.27894, 2.27803, 3.15285, 2.5861, -2.69287, -3.65553, 1.04407, -2.82671, 1.38434, 0.159194, 2.27649, -2.98368, -1.44844, -3.75063, -2.82614, -1.94663, 4.0487, 0.314129, -1.45137, -2.03248, -1.02103, -0.669367, -1.50889, -0.867414, -0.73211, -0.565563, -1.5528, -2.0985, -4.73107, 0.480748, -0.587104, -2.45227, -0.0141758, 1.16246, -1.57859, 3.24694, 3.33714, 3.72072, 2.35556, -2.13482, 0.0581662, -2.65829, 2.2544, 1.51989, 3.06729, -1.2222, 1.40864, 1.54348, 3.11402, -3.05491, 1.43156, 3.97286, 3.80538, -2.9574, -1.04693, -3.67654, 0.330835, -2.62305, 0.0194918, -2.77362, 2.31977, -2.03097, -2.2931, -1.31091, 1.96343, -0.685687, 3.65946,  
-4.14645, 0.196697, 1.88339, -1.89356, -0.990208, -2.42971, 3.80699, 0.0985449, 0.243592, -1.94319, -3.1433, 2.5239, 3.20436, -0.383771, -2.03689, -2.02074, -2.49381, -1.41381, -3.17813, 2.41799, 0.165481, 2.55602, 1.64971, -3.56248, 0.228116, -2.97842, 2.90156, -0.283229, -0.224216, -0.39996, -2.13273, -3.95648, -4.26179, 2.48341, 1.17831, 0.69681, 0.0773521, 2.01751, 0.902366, -0.86043, -0.752255, -1.82935, -1.18401, 1.12657, -1.1117, -3.86996, -0.958874, -3.86658, -0.83574, -1.17741, -2.44272, -3.34418, 3.3307, 0.652194, -2.30728, 4.1605, -0.520659, 1.61191, -2.54207, -0.0982283, 3.57786, -1.0449, 3.54275, 0.775592, -2.12216, -0.327331, -2.82595, 2.70818, 3.43478, -2.8678, -3.74592, -2.92854, 1.06703, -0.928428, -0.994367, 2.96425, 3.93323, -1.17041, 1.15532, -3.11695, 2.16552, -0.72452, 2.16843, 3.52752, -0.259392, -0.473412, 3.37991, -0.171235, 4.51696, 0.0743112, 2.74518, 2.47935, 0.843757, -0.347168, 1.89157, 0.831275, -1.0887, -1.17632, -1.50557, -0.428307, 0.51682, 1.1268, -3.4225, -0.0548679, 0.557624, -0.864387, 3.51492, -0.42386, -2.27907, 2.04178, -2.90253, -0.495719, -1.65983, -0.712955, -2.16913, -1.55448, 1.55491, 5.1142, 1.24809, 3.88947, 3.69672, -0.42666, -5.05446, -2.08533, -3.13234, 2.59238, -0.866507, -3.39057, 0.489339, -2.49012, -2.27091, 2.29492, 3.14932, 2.55555, -2.72645, -3.66194, 1.02891, -2.8124, 1.38464, 0.16039, 2.27649, -2.98368, -1.44977, -3.75107, -2.80076, -1.93026, 4.02188, 0.291175, -1.45773, -2.04056, -1.03217, -0.66133, -1.5091, -0.867018, -0.73211, -0.565563, -1.55314, -2.10025, -4.72209, 0.501436, -0.55723, -2.41093, 0.00155785, 1.15406, -1.57461, 3.24653, 3.33642, 3.72072, 2.35556, -2.13482, 0.0577632, -2.66299, 2.23758, 1.49357, 3.0362, -1.23872, 1.39987, 1.53513, 3.10764, -3.05791, 1.43106, 3.97286, 3.80538, -2.9574, -1.04693, -3.67654, 0.330335, -2.62395, 0.0185912, -2.77442, 2.31877, -2.03237, -2.2942, -1.31141, 1.96343, -0.685687, 3.65946,  
-4.15057, 0.196697, 1.88339, -1.89356, -0.990208, -2.42971, 3.80699, 0.0985449, 0.243592, -1.94319, -3.1433, 2.5239, 3.20436, -0.383771, -2.03689, -2.02074, -2.49381, -1.41381, -3.17833, 2.41676, 0.162958, 2.55251, 1.64429, -3.56683, 0.22645, -2.97891, 2.90156, -0.283229, -0.224216, -0.39996, -2.13273, -3.95699, -4.26771, 2.46417, 1.16461, 0.705478, 0.0947252, 2.02147, 0.900112, -0.850903, -0.747651, -1.82925, -1.18401, 1.12657, -1.1121, -3.87275, -0.970747, -3.85572, -0.814851, -1.16332, -2.42959, -3.32792, 3.29817, 0.639631, -2.29902, 4.16112, -0.520659, 1.61191, -2.54247, -0.10813, 3.56764, -1.04104, 3.51503, 0.758167, -2.15576, -0.338613, -2.82783, 2.67744, 3.42592, -2.8671, -3.74592, -2.92854, 1.06641, -0.927377, -0.985508, 2.97102, 3.92756, -1.141, 1.15977, -3.10573, 2.13331, -0.741483, 2.16798, 3.52812, -0.259392, -0.473412, 3.38051, -0.168439, 4.52436, 0.0859588, 2.72784, 2.48577, 0.862823, -0.358292, 1.85266, 0.832396, -1.08233, -1.17578, -1.50557, -0.428307, 0.51642, 1.125, -3.41898, -0.0495219, 0.569428, -0.844225, 3.49542, -0.399259, -2.26327, 2.02147, -2.89854, -0.493207, -1.65983, -0.712955, -2.17044, -1.56137, 1.55274, 5.11519, 1.26777, 3.85077, 3.63737, -0.430761, -5.02926, -2.08365, -3.13588, 2.59519, -0.866507, -3.39057, 0.48731, -2.49911, -2.26286, 2.31078, 3.14515, 2.5262, -2.75736, -3.66667, 1.01361, -2.79915, 1.38454, 0.161584, 2.27649, -2.98368, -1.45102, -3.75104, -2.77526, -1.91465, 3.99457, 0.269761, -1.46216, -2.04807, -1.04431, -0.654288, -1.50937, -0.866623, -0.73211, -0.565563, -1.55345, -2.10175, -4.71259, 0.52183, -0.528728, -2.37067, 0.0165517, 1.14507, -1.57129, 3.24598, 3.3357, 3.72072, 2.35556, -2.13482, 0.0573626, -2.66762, 2.22102, 1.46772, 3.00579, -1.25481, 1.39127, 1.52677, 3.10133, -3.06092, 1.43056, 3.97286, 3.80538, -2.9574, -1.04693, -3.67654, 0.329835, -2.62485, 0.0176908, -2.77522, 2.31777, -2.03377, -2.2953, -1.31191, 1.96343, -0.685687, 3.65946,  
-4.15464, 0.196697, 1.88339, -1.89356, -0.990208, -2.42971, 3.80699, 0.0985449, 0.243592, -1.94319, -3.1433, 2.5239, 3.20436, -0.383771, -2.03689, -2.02074, -2.49381, -1.41381, -3.17853, 2.41554, 0.160456, 2.549, 1.63889, -3.57112, 0.224883, -2.97934, 2.90156, -0.283229, -0.224216, -0.39996, -2.13273, -3.95751, -4.27358, 2.44502, 1.15069, 0.713255, 0.110579, 2.02449, 0.897962, -0.841242, -0.743052, -1.82915, -1.18401, 1.12657, -1.1125, -3.87553, -0.982621, -3.84488, -0.794391, -1.14918, -2.41549, -3.31133, 3.2662, 0.627341, -2.29085, 4.16172, -0.520659, 1.61191, -2.54287, -0.117995, 3.55742, -1.03751, 3.48754, 0.74178, -2.18812, -0.349308, -2.82897, 2.64775, 3.41739, -2.86641, -3.74592, -2.92854, 1.0658, -0.926293, -0.976678, 2.97751, 3.92144, -1.11206, 1.16372, -3.09402, 2.10227, -0.75766, 2.16773, 3.52869, -0.259392, -0.473412, 3.38111, -0.165614, 4.53165, 0.0973514, 2.71022, 2.49124, 0.881255, -0.368711, 1.81417, 0.833372, -1.07606, -1.17527, -1.50557, -0.428307, 0.51602, 1.12322, -3.41539, -0.0442205, 0.580983, -0.823698, 3.47712, -0.375267, -2.24853, 2.00087, -2.89468, -0.490703, -1.65983, -0.712955, -2.17174, -1.56819, 1.55057, 5.1155, 1.28627, 3.81325, 3.58096, -0.433949, -5.00512, -2.08262, -3.13969, 2.59799, -0.866507, -3.39057, 0.485297, -2.50783, -2.25475, 2.32569, 3.14044, 2.49802, -2.78563, -3.66975, 0.998124, -2.78686, 1.38414, 0.162777, 2.27649, -2.98368, -1.45222, -3.75056, -2.74958, -1.89957, 3.96701, 0.249959, -1.46472, -2.05498, -1.05733, -0.648073, -1.50972, -0.86623, -0.73211, -0.565563, -1.55375, -2.10303, -4.70262, 0.541963, -0.501347, -2.33122, 0.0309315, 1.13557, -1.56852, 3.24533, 3.33497, 3.72072, 2.35556, -2.13482, 0.0569628, -2.67217, 2.20471, 1.44231, 2.97604, -1.27044, 1.38293, 1.51843, 3.09509, -3.06392, 1.43006, 3.97286, 3.80538, -2.9574, -1.04693, -3.67654, 0.329335, -2.62575, 0.0167905, -2.77602, 2.31677, -2.03517, -2.2964, -1.31241, 1.96343, -0.685687, 3.65946,  
-4.1587, 0.196697, 1.88339, -1.89356, -0.990208, -2.42971, 3.80699, 0.0985449, 0.243592, -1.94319, -3.1433, 2.5239, 3.20436, -0.383771, -2.03689, -2.02074, -2.49381, -1.41381, -3.17873, 2.41435, 0.157979, 2.5455, 1.63352, -3.57537, 0.223365, -2.97974, 2.90156, -0.283229, -0.224216, -0.39996, -2.13273, -3.95802, -4.27939, 2.42597, 1.13653, 0.720147, 0.125014, 2.02667, 0.895822, -0.831544, -0.738472, -1.82905, -1.18401, 1.12657, -1.1129, -3.8783, -0.994514, -3.83398, -0.774283, -1.13484, -2.40047, -3.29437, 3.23479, 0.615258, -2.28272, 4.16232, -0.520659, 1.61191, -2.54327, -0.127814, 3.54716, -1.03414, 3.46039, 0.726431, -2.21913, -0.359213, -2.82934, 2.619, 3.40921, -2.86571, -3.74592, -2.92854, 1.06518, -0.92518, -0.967825, 2.98381, 3.91506, -1.08356, 1.16722, -3.0818, 2.07233, -0.773107, 2.16766, 3.52925, -0.259392, -0.473412, 3.38171, -0.16277, 4.53885, 0.108538, 2.69253, 2.49589, 0.899115, -0.37832, 1.77616, 0.834249, -1.06985, -1.17477, -1.50557, -0.428307, 0.51562, 1.12147, -3.41179, -0.0390928, 0.592237, -0.802808, 3.45991, -0.351774, -2.23479, 1.97999, -2.8909, -0.488202, -1.65983, -0.712955, -2.17304, -1.57496, 1.54831, 5.11504, 1.30359, 3.77699, 3.52735, -0.436255, -4.98208, -2.08223, -3.1437, 2.60078, -0.866507, -3.39057, 0.483292, -2.51627, -2.2466, 2.3397, 3.13523, 2.47105, -2.81132, -3.67134, 0.982387, -2.77547, 1.38352, 0.163968, 2.27649, -2.98368, -1.45339, -3.74967, -2.72362, -1.88493, 3.9393, 0.23181, -1.46554, -2.0613, -1.07115, -0.642619, -1.51013, -0.865837, -0.73211, -0.565563, -1.55403, -2.10409, -4.69224, 0.561864, -0.474912, -2.29243, 0.0446925, 1.12552, -1.56628, 3.24456, 3.33424, 3.72072, 2.35556, -2.13482, 0.0565635, -2.67667, 2.18861, 1.41726, 2.94686, -1.28559, 1.37492, 1.51017, 3.08893, -3.06693, 1.42956, 3.97286, 3.80538, -2.9574, -1.04693, -3.67654, 0.328835, -2.62665, 0.0158903, -2.77682, 2.31577, -2.03657, -2.2975, -1.31291, 1.96343, -0.685687, 3.65946,  
-4.16276, 0.196697, 1.88339, -1.89356, -0.990208, -2.42971, 3.80699, 0.0985449, 0.243592, -1.94319, -3.1433, 2.5239, 3.20436, -0.383771, -2.03689, -2.02074, -2.49381, -1.41381, -3.17893, 2.41319, 0.155531, 2.54201, 1.62818, -3.57958, 0.221862, -2.98011, 2.90156, -0.283229, -0.224216, -0.39996, -2.13273, -3.95852, -4.28513, 2.407, 1.12206, 0.726117, 0.138066, 2.02807, 0.893676, -0.821834, -0.733919, -1.82895, -1.18401, 1.12657, -1.11329, -3.88104, -1.0064, -3.82307, -0.754587, -1.12032, -2.38481, -3.27725, 3.20378, 0.603336, -2.27459, 4.1629, -0.520659, 1.61191, -2.54367, -0.137576, 3.53689, -1.03092, 3.4335, 0.71189, -2.24888, -0.368394, -2.8292, 2.5909, 3.40128, -2.86503, -3.74592, -2.92854, 1.06457, -0.924041, -0.958899, 2.98995, 3.90856, -1.05565, 1.17019, -3.06925, 2.04317, -0.788002, 2.16776, 3.5298, -0.259392, -0.473412, 3.38231, -0.159915, 4.54602, 0.119548, 2.67484, 2.49963, 0.916178, -0.387304, 1.7386, 0.835061, -1.06367, -1.17429, -1.50557, -0.428307, 0.51522, 1.11978, -3.40818, -0.0342161, 0.603066, -0.781806, 3.44344, -0.328844, -2.22196, 1.95889, -2.88719, -0.485702, -1.65983, -0.712955, -2.17433, -1.58167, 1.5459, 5.11379, 1.31974, 3.74194, 3.47625, -0.437863, -4.96016, -2.08246, -3.14787, 2.60357, -0.866507, -3.39057, 0.481292, -2.52447, -2.23848, 2.35285, 3.12951, 2.44526, -2.83463, -3.67172, 0.966293, -2.76494, 1.38271, 0.165157, 2.27649, -2.98368, -1.45454, -3.74844, -2.69745, -1.87078, 3.91132, 0.215175, -1.46482, -2.06717, -1.08567, -0.637895, -1.5106, -0.865446, -0.73211, -0.565563, -1.55429, -2.10499, -4.68155, 0.58143, -0.449485, -2.25438, 0.0577364, 1.11482, -1.56458, 3.2437, 3.3335, 3.72072, 2.35556, -2.13482, 0.0561652, -2.68112, 2.17267, 1.39253, 2.91814, -1.30029, 1.36726, 1.50201, 3.08288, -3.06993, 1.42906, 3.97286, 3.80538, -2.9574, -1.04693, -3.67654, 0.328335, -2.62755, 0.0149901, -2.77761, 2.31477, -2.03797, -2.2986, -1.31341, 1.96343, -0.685687, 3.65946,  
-4.16683, 0.196697, 1.88339, -1.89356, -0.990208, -2.42971, 3.80699, 0.0985449, 0.243592, -1.94319, -3.1433, 2.5239, 3.20436, -0.383771, -2.03689, -2.02074, -2.49381, -1.41381, -3.17913, 2.41207, 0.153114, 2.53853, 1.6229, -3.58372, 0.220355, -2.98047, 2.90156, -0.283229, -0.224216, -0.39996, -2.13273, -3.959, -4.29078, 2.3881, 1.10732, 0.731283, 0.149883, 2.02876, 0.891565, -0.812102, -0.729392, -1.82885, -1.18401, 1.12657, -1.11369, -3.88369, -1.01818, -3.81207, -0.735199, -1.1056, -2.36862, -3.26005, 3.17313, 0.591618, -2.26645, 4.16349, -0.520659, 1.61191, -2.54407, -0.147252, 3.5267, -1.02776, 3.4068, 0.698014, -2.27741, -0.37685, -2.82872, 2.56327, 3.39355, -2.86434, -3.74592, -2.92854, 1.06395, -0.922874, -0.949819, 2.99604, 3.90201, -1.0283, 1.17271, -3.05637, 2.01464, -0.802421, 2.16802, 3.53034, -0.259392, -0.473412, 3.38291, -0.157055, 4.55317, 0.130467, 2.65724, 2.50255, 0.932412, -0.395755, 1.70157, 0.835896, -1.05751, -1.1738, -1.50557, -0.428307, 0.514821, 1.11817, -3.40456, -0.0295503, 0.613518, -0.76084, 3.42752, -0.306408, -2.20989, 1.93766, -2.88352, -0.483203, -1.65983, -0.712955, -2.1756, -1.58826, 1.54337, 5.11182, 1.33481, 3.70815, 3.42748, -0.438831, -4.93926, -2.0832, -3.15214, 2.60635, -0.866507, -3.39057, 0.479297, -2.53244, -2.23037, 2.36521, 3.1234, 2.42072, -2.85569, -3.67097, 0.949854, -2.75513, 1.38176, 0.16634, 2.27649, -2.98368, -1.45568, -3.74691, -2.67109, -1.85709, 3.88308, 0.199959, -1.46269, -2.07257, -1.10072, -0.633773, -1.51112, -0.865058, -0.73211, -0.565563, -1.55454, -2.10576, -4.67066, 0.600602, -0.425088, -2.21705, 0.0701835, 1.10355, -1.56329, 3.24278, 3.33275, 3.72072, 2.35556, -2.13482, 0.0557688, -2.68553, 2.15688, 1.36807, 2.88978, -1.31451, 1.35998, 1.49401, 3.07698, -3.07294, 1.42856, 3.97286, 3.80538, -2.9574, -1.04693, -3.67654, 0.327835, -2.62845, 0.01409, -2.77838, 2.31377, -2.03937, -2.2997, -1.31391, 1.96343, -0.685687, 3.65946,  
-4.17088, 0.196697, 1.88339, -1.89356, -0.990208, -2.42971, 3.80699, 0.0985449, 0.243592, -1.94319, -3.1433, 2.5239, 3.20436, -0.383771, -2.03689, -2.02074, -2.49381, -1.41381, -3.17933, 2.41097, 0.150729, 2.53506, 1.61769, -3.58776, 0.218843, -2.98082, 2.90156, -0.283229, -0.224216, -0.39996, -2.13273, -3.95944, -4.2963, 2.36929, 1.09241, 0.735804, 0.160609, 2.02877, 0.889512, -0.802329, -0.724875, -1.82875, -1.18401, 1.12657, -1.11408, -3.8862, -1.02971, -3.80089, -0.715977, -1.09075, -2.35203, -3.24283, 3.14276, 0.580181, -2.25826, 4.16407, -0.520659, 1.61191, -2.54446, -0.156803, 3.51673, -1.02455, 3.3803, 0.684731, -2.30473, -0.384604, -2.82799, 2.5361, 3.38602, -2.86366, -3.74592, -2.92854, 1.06334, -0.921666, -0.940511, 3.0022, 3.89541, -1.00143, 1.17492, -3.04309, 1.98672, -0.816381, 2.16846, 3.53086, -0.259392, -0.473412, 3.38351, -0.154193, 4.56032, 0.141344, 2.63971, 2.50475, 0.947876, -0.403721, 1.66517, 0.836857, -1.05136, -1.17332, -1.50557, -0.428307, 0.514422, 1.11666, -3.4009, -0.0250378, 0.623667, -0.740054, 3.41201, -0.284378, -2.19847, 1.91639, -2.87989, -0.480704, -1.65983, -0.712955, -2.17684, -1.59469, 1.5408, 5.10927, 1.34889, 3.67561, 3.38086, -0.439178, -4.91924, -2.08437, -3.1565, 2.60912, -0.866507, -3.39057, 0.47731, -2.54015, -2.22223, 2.3769, 3.11705, 2.39749, -2.8746, -3.66911, 0.933112, -2.74592, 1.38072, 0.167517, 2.27649, -2.98368, -1.4568, -3.7451, -2.64457, -1.84377, 3.85465, 0.186053, -1.45924, -2.07742, -1.11613, -0.630098, -1.51169, -0.864673, -0.73211, -0.565563, -1.55478, -2.10642, -4.65965, 0.619322, -0.401741, -2.18042, 0.0821723, 1.09189, -1.56223, 3.24186, 3.33198, 3.72072, 2.35556, -2.13482, 0.0553758, -2.6899, 2.14123, 1.34385, 2.86171, -1.3282, 1.3531, 1.48617, 3.0713, -3.07595, 1.42806, 3.97286, 3.80538, -2.9574, -1.04693, -3.67654, 0.327335, -2.62935, 0.01319, -2.77913, 2.31277, -2.04076, -2.3008, -1.31441, 1.96343, -0.685687, 3.65946,  
-4.17491, 0.196697, 1.88339, -1.89356, -0.990208, -2.42971, 3.80699, 0.0985449, 0.243592, -1.94319, -3.1433, 2.5239, 3.20436, -0.383771, -2.03689, -2.02074, -2.49381, -1.41381, -3.17953, 2.40991, 0.148374, 2.53161, 1.61255, -3.5917, 0.217332, -2.98117, 2.90156, -0.283229, -0.224216, -0.39996, -2.13273, -3.95983, -4.30169, 2.35058, 1.07736, 0.739795, 0.170322, 2.02812, 0.887506, -0.792497, -0.720338, -1.82865, -1.18401, 1.12657, -1.11446, -3.88853, -1.04086, -3.78944, -0.69685, -1.07587, -2.3352, -3.22567, 3.11261, 0.56908, -2.24998, 4.16465, -0.520659, 1.61191, -2.54484, -0.166203, 3.50706, -1.02127, 3.35391, 0.671995, -2.33087, -0.391753, -2.82705, 2.50942, 3.37868, -2.86298, -3.74592, -2.92854, 1.06276, -0.920396, -0.930971, 3.00838, 3.88869, -0.974972, 1.17697, -3.02938, 1.95947, -0.829916, 2.16908, 3.53138, -0.259392, -0.473412, 3.38411, -0.151334, 4.56746, 0.15215, 2.62213, 2.50624, 0.962587, -0.411293, 1.62946, 0.838016, -1.04523, -1.17285, -1.50557, -0.428307, 0.514025, 1.11526, -3.39716, -0.0206459, 0.633522, -0.71962, 3.39673, -0.262757, -2.18764, 1.89517, -2.87628, -0.478205, -1.65983, -0.712955, -2.17804, -1.60092, 1.53827, 5.10629, 1.36213, 3.64431, 3.33615, -0.438989, -4.9, -2.08588, -3.16092, 2.61189, -0.866507, -3.39057, 0.475334, -2.54758, -2.21403, 2.38802, 3.11057, 2.37564, -2.89148, -3.66621, 0.916105, -2.73721, 1.37958, 0.168682, 2.27649, -2.98368, -1.45792, -3.74306, -2.61796, -1.83081, 3.82606, 0.173325, -1.45458, -2.08171, -1.13177, -0.626762, -1.51231, -0.864291, -0.73211, -0.565563, -1.555, -2.10698, -4.64863, 0.637496, -0.379482, -2.14455, 0.0937381, 1.07993, -1.56124, 3.24095, 3.3312, 3.72072, 2.35556, -2.13482, 0.0549886, -2.69421, 2.12574, 1.31986, 2.83386, -1.34145, 1.34655, 1.47853, 3.0659, -3.07896, 1.42756, 3.97286, 3.80538, -2.9574, -1.04693, -3.67654, 0.326835, -2.63025, 0.0122899, -2.77986, 2.31177, -2.04214, -2.30189, -1.31491, 1.96343, -0.685687, 3.65946,  
-4.1789, 0.196697, 1.88339, -1.89356, -0.990208, -2.42971, 3.80699, 0.0985449, 0.243592, -1.94319, -3.1433, 2.5239, 3.20436, -0.383771, -2.03689, -2.02074, -2.49381, -1.41381, -3.17973, 2.40887, 0.146049, 2.52818, 1.60747, -3.59553, 0.21583, -2.98152, 2.90156, -0.283229, -0.224216, -0.39996, -2.13273, -3.96019, -4.30694, 2.33196, 1.06221, 0.743334, 0.179073, 2.02683, 0.885525, -0.782602, -0.715762, -1.82855, -1.18401, 1.12657, -1.11482, -3.89069, -1.05157, -3.77769, -0.677774, -1.06102, -2.31826, -3.20863, 3.08263, 0.558322, -2.24159, 4.16523, -0.520659, 1.61191, -2.54519, -0.175433, 3.49774, -1.01786, 3.32757, 0.659807, -2.35581, -0.398374, -2.82593, 2.48324, 3.37151, -2.8623, -3.74592, -2.92854, 1.06221, -0.919017, -0.921244, 3.01449, 3.88173, -0.948903, 1.17891, -3.01525, 1.93295, -0.843079, 2.16982, 3.53189, -0.259392, -0.473412, 3.38471, -0.148478, 4.5746, 0.162828, 2.60432, 2.50698, 0.976548, -0.418548, 1.59445, 0.839389, -1.03911, -1.17238, -1.50557, -0.428307, 0.513631, 1.11394, -3.3933, -0.0163599, 0.643054, -0.699656, 3.38156, -0.241564, -2.17736, 1.87406, -2.87271, -0.475706, -1.65983, -0.712955, -2.17917, -1.60696, 1.53581, 5.10297, 1.37462, 3.61421, 3.29315, -0.43839, -4.88148, -2.0877, -3.16541, 2.61464, -0.866507, -3.39057, 0.473376, -2.55472, -2.20582, 2.39859, 3.10406, 2.3552, -2.90645, -3.66242, 0.898872, -2.72893, 1.37834, 0.169828, 2.27649, -2.98368, -1.45902, -3.74083, -2.5914, -1.8183, 3.79734, 0.161664, -1.44885, -2.08548, -1.14755, -0.623689, -1.513, -0.863914, -0.73211, -0.565563, -1.55522, -2.10744, -4.63764, 0.655042, -0.358323, -2.10945, 0.104891, 1.06775, -1.56022, 3.24006, 3.33039, 3.72072, 2.35556, -2.13482, 0.0546102, -2.69846, 2.11042, 1.29611, 2.80626, -1.35431, 1.34026, 1.47109, 3.06082, -3.08196, 1.42706, 3.97286, 3.80538, -2.9574, -1.04693, -3.67654, 0.326335, -2.63115, 0.0113899, -2.78057, 2.31077, -2.0435, -2.30298, -1.31541, 1.96343, -0.685687, 3.65946,  
-4.18285, 0.196697, 1.88339, -1.89356, -0.990208, -2.42971, 3.80699, 0.0985449, 0.243592, -1.94319, -3.1433, 2.5239, 3.20436, -0.383771, -2.03689, -2.02074, -2.49381, -1.41381, -3.17993, 2.40786, 0.143755, 2.52478, 1.60246, -3.59925, 0.214348, -2.98188, 2.90156, -0.283229, -0.224216, -0.39996, -2.13273, -3.96052, -4.31206, 2.31347, 1.04697, 0.74647, 0.186898, 2.02489, 0.883506, -0.772688, -0.711156, -1.82845, -1.18401, 1.12657, -1.11516, -3.89271, -1.06182, -3.76559, -0.658713, -1.04623, -2.30124, -3.19172, 3.05276, 0.547838, -2.2331, 4.16581, -0.520659, 1.61191, -2.54547, -0.184462, 3.4888, -1.01424, 3.30134, 0.64824, -2.37951, -0.40447, -2.82461, 2.45757, 3.36449, -2.86163, -3.74592, -2.92854, 1.06176, -0.917459, -0.911384, 3.02044, 3.87443, -0.92324, 1.18077, -3.00074, 1.90726, -0.855912, 2.17063, 3.53238, -0.259392, -0.473412, 3.38531, -0.145628, 4.5817, 0.173337, 2.58615, 2.50692, 0.989743, -0.425509, 1.56019, 0.840933, -1.033, -1.17192, -1.50557, -0.428307, 0.513243, 1.1127, -3.38932, -0.0121951, 0.652228, -0.680204, 3.36648, -0.220786, -2.16761, 1.8531, -2.86917, -0.473208, -1.65983, -0.712955, -2.18022, -1.61282, 1.5334, 5.09931, 1.38647, 3.58531, 3.25175, -0.437488, -4.86367, -2.08979, -3.16996, 2.61736, -0.866507, -3.39057, 0.471446, -2.56161, -2.19767, 2.40859, 3.09756, 2.33612, -2.91961, -3.65792, 0.881461, -2.72096, 1.377, 0.170941, 2.27649, -2.98368, -1.46012, -3.73845, -2.56505, -1.80637, 3.76848, 0.15098, -1.44217, -2.08882, -1.16334, -0.620791, -1.51377, -0.863544, -0.73211, -0.565563, -1.55543, -2.10781, -4.62673, 0.67192, -0.338254, -2.07512, 0.115658, 1.05543, -1.55907, 3.23918, 3.32955, 3.72072, 2.35556, -2.13482, 0.054244, -2.70264, 2.09529, 1.27266, 2.77896, -1.3668, 1.3342, 1.46385, 3.05606, -3.08496, 1.42656, 3.97286, 3.80538, -2.9574, -1.04693, -3.67654, 0.325835, -2.63205, 0.0104899, -2.78128, 2.30977, -2.0448, -2.30405, -1.31591, 1.96343, -0.685687, 3.65946,  
-4.18679, 0.196697, 1.88339, -1.89356, -0.990208, -2.42971, 3.80699, 0.0985449, 0.243592, -1.94319, -3.1433, 2.5239, 3.20436, -0.383771, -2.03689, -2.02074, -2.49381, -1.41381, -3.18013, 2.40686, 0.141494, 2.5214, 1.5975, -3.60287, 0.212888, -2.98223, 2.90156, -0.283229, -0.224216, -0.39996, -2.13273, -3.96083, -4.31704, 2.29513, 1.03165, 0.749236, 0.193816, 2.02226, 0.881347, -0.76283, -0.706557, -1.82835, -1.18401, 1.12657, -1.11546, -3.89461, -1.07161, -3.75316, -0.639698, -1.03153, -2.2842, -3.175, 3.02283, 0.537507, -2.22455, 4.1664, -0.520659, 1.61191, -2.54567, -0.193261, 3.48025, -1.01041, 3.27523, 0.637313, -2.40197, -0.410087, -2.8232, 2.43233, 3.35758, -2.86096, -3.74592, -2.92854, 1.06144, -0.915662, -0.90144, 3.02619, 3.86673, -0.89803, 1.18249, -2.98597, 1.88236, -0.868437, 2.17149, 3.53286, -0.259392, -0.473412, 3.38591, -0.142785, 4.58875, 0.183663, 2.56751, 2.50597, 1.0021, -0.432262, 1.52667, 0.842578, -1.02691, -1.17146, -1.50557, -0.428307, 0.512868, 1.11151, -3.38526, -0.00820025, 0.660999, -0.661282, 3.35143, -0.200457, -2.15834, 1.83227, -2.86566, -0.47071, -1.65983, -0.712955, -2.18118, -1.61856, 1.53098, 5.09523, 1.39771, 3.55754, 3.21182, -0.436384, -4.84658, -2.09208, -3.17456, 2.62005, -0.866507, -3.39057, 0.469554, -2.56829, -2.18972, 2.41797, 3.0911, 2.31828, -2.93117, -3.6529, 0.863905, -2.71317, 1.37556, 0.172008, 2.27649, -2.98368, -1.46121, -3.73596, -2.53908, -1.79517, 3.73947, 0.141164, -1.43474, -2.09183, -1.17902, -0.617994, -1.51465, -0.86318, -0.73211, -0.565563, -1.55563, -2.10808, -4.61592, 0.688097, -0.319298, -2.04162, 0.125994, 1.04302, -1.55772, 3.23829, 3.32868, 3.72072, 2.35556, -2.13482, 0.0538927, -2.70675, 2.08034, 1.2495, 2.75198, -1.37899, 1.32836, 1.45679, 3.0516, -3.08795, 1.42606, 3.97286, 3.80538, -2.9574, -1.04693, -3.67654, 0.325335, -2.63295, 0.00958987, -2.78198, 2.30877, -2.04603, -2.30509, -1.31641, 1.96343, -0.685687, 3.65946,  
-4.19073, 0.196697, 1.88339, -1.89356, -0.990208, -2.42971, 3.80699, 0.0985449, 0.243592, -1.94319, -3.1433, 2.5239, 3.20436, -0.383771, -2.03689, -2.02074, -2.49381, -1.41381, -3.18033, 2.40589, 0.139272, 2.51807, 1.59262, -3.60639, 0.211447, -2.98259, 2.90156, -0.283229, -0.224216, -0.39996, -2.13273, -3.96114, -4.32188, 2.27696, 1.01628, 0.751704, 0.199887, 2.01896, 0.878965, -0.753092, -0.701997, -1.82825, -1.18401, 1.12657, -1.11572, -3.89639, -1.081, -3.74046, -0.620797, -1.01703, -2.2672, -3.1585, 2.99275, 0.527221, -2.21599, 4.16698, -0.520659, 1.61191, -2.54578, -0.201844, 3.47204, -1.00645, 3.24924, 0.62696, -2.42327, -0.41534, -2.82185, 2.40743, 3.35076, -2.86029, -3.74592, -2.92854, 1.06124, -0.913629, -0.891461, 3.03175, 3.85862, -0.873285, 1.18403, -2.97111, 1.85809, -0.880658, 2.17236, 3.53333, -0.259392, -0.473412, 3.38651, -0.13995, 4.59573, 0.193827, 2.54842, 2.50413, 1.01359, -0.438922, 1.49387, 0.844279, -1.02084, -1.171, -1.50557, -0.428307, 0.512516, 1.11036, -3.38117, -0.00441689, 0.669342, -0.642876, 3.33633, -0.180625, -2.14947, 1.81158, -2.86219, -0.468214, -1.65983, -0.712955, -2.18203, -1.62425, 1.52847, 5.09064, 1.40839, 3.53078, 3.17319, -0.43516, -4.83021, -2.09451, -3.1792, 2.62268, -0.866507, -3.39057, 0.467722, -2.57481, -2.18204, 2.42671, 3.08471, 2.30148, -2.94132, -3.64752, 0.846247, -2.70544, 1.374, 0.173019, 2.27649, -2.98368, -1.46229, -3.73339, -2.51357, -1.78472, 3.71035, 0.132139, -1.42672, -2.09461, -1.19453, -0.615261, -1.51567, -0.862826, -0.73211, -0.565563, -1.55582, -2.10826, -4.6052, 0.703566, -0.30147, -2.00904, 0.135822, 1.03055, -1.5562, 3.23739, 3.32777, 3.72072, 2.35556, -2.13482, 0.0535577, -2.71078, 2.06556, 1.22658, 2.72525, -1.39097, 1.32273, 1.4499, 3.04738, -3.09092, 1.42556, 3.97286, 3.80538, -2.9574, -1.04693, -3.67654, 0.324835, -2.63385, 0.00868986, -2.78268, 2.30777, -2.04721, -2.30611, -1.31691, 1.96343, -0.685687, 3.65946,  
-4.19467, 0.196697, 1.88339, -1.89356, -0.990208, -2.42971, 3.80699, 0.0985449, 0.243592, -1.94319, -3.1433, 2.5239, 3.20436, -0.383771, -2.03689, -2.02074, -2.49381, -1.41381, -3.18053, 2.40495, 0.1371, 2.51479, 1.5878, -3.60983, 0.210022, -2.98295, 2.90156, -0.283229, -0.224216, -0.39996, -2.13273, -3.96144, -4.32659, 2.25899, 1.00097, 0.753999, 0.205238, 2.01504, 0.876338, -0.743513, -0.697491, -1.82815, -1.18401, 1.12657, -1.11593, -3.89808, -1.09001, -3.72749, -0.602015, -1.00275, -2.25018, -3.1422, 2.96255, 0.516935, -2.20744, 4.16756, -0.520659, 1.61191, -2.54582, -0.210254, 3.46409, -1.00243, 3.22332, 0.617125, -2.44352, -0.420334, -2.82064, 2.38286, 3.34404, -2.85963, -3.74592, -2.92854, 1.06113, -0.911413, -0.88148, 3.03715, 3.85019, -0.848946, 1.18541, -2.95624, 1.83435, -0.892549, 2.17324, 3.53378, -0.259392, -0.473412, 3.38711, -0.13712, 4.60263, 0.203876, 2.52897, 2.50152, 1.02431, -0.445484, 1.46179, 0.846024, -1.01479, -1.17055, -1.50557, -0.428307, 0.512201, 1.10923, -3.37708, -0.000853393, 0.677282, -0.624914, 3.32112, -0.161254, -2.14082, 1.79109, -2.85875, -0.465718, -1.65983, -0.712955, -2.18275, -1.6299, 1.52584, 5.08554, 1.41855, 3.50489, 3.1357, -0.433862, -4.81445, -2.09693, -3.18386, 2.62527, -0.866507, -3.39057, 0.465976, -2.58118, -2.17459, 2.43494, 3.07845, 2.28562, -2.95024, -3.64191, 0.82855, -2.69766, 1.37235, 0.173975, 2.27649, -2.98368, -1.46335, -3.73071, -2.48849, -1.77494, 3.68124, 0.123902, -1.41816, -2.09721, -1.2098, -0.612571, -1.51681, -0.86248, -0.73211, -0.565563, -1.55599, -2.10834, -4.59454, 0.718402, -0.284694, -1.97737, 0.145138, 1.01808, -1.55458, 3.23645, 3.32683, 3.72072, 2.35556, -2.13482, 0.0532394, -2.71476, 2.05093, 1.20386, 2.69869, -1.40278, 1.31728, 1.44314, 3.04332, -3.09388, 1.42506, 3.97286, 3.80538, -2.9574, -1.04693, -3.67654, 0.324335, -2.63475, 0.00778985, -2.78338, 2.30677, -2.04835, -2.30713, -1.31741, 1.96343, -0.685687, 3.65946,  
-4.1986, 0.196697, 1.88339, -1.89356, -0.990208, -2.42971, 3.80699, 0.0985449, 0.243592, -1.94319, -3.1433, 2.5239, 3.20436, -0.383771, -2.03689, -2.02074, -2.49381, -1.41381, -3.18073, 2.40404, 0.134989, 2.51157, 1.58306, -3.61322, 0.208609, -2.98331, 2.90156, -0.283229, -0.224216, -0.39996, -2.13273, -3.96174, -4.33115, 2.24126, 0.98581, 0.75624, 0.21, 2.01058, 0.873477, -0.734116, -0.693051, -1.82805, -1.18401, 1.12657, -1.11608, -3.89966, -1.0987, -3.71426, -0.583337, -0.988668, -2.23311, -3.12602, 2.93231, 0.506647, -2.19892, 4.16814, -0.520659, 1.61191, -2.54584, -0.218539, 3.45636, -0.998372, 3.19748, 0.607801, -2.46281, -0.42515, -2.81954, 2.3586, 3.3374, -2.85898, -3.74592, -2.92854, 1.06107, -0.909072, -0.87151, 3.04245, 3.84152, -0.824929, 1.18665, -2.94137, 1.81109, -0.904094, 2.17414, 3.53421, -0.259392, -0.473412, 3.38771, -0.134294, 4.60946, 0.213834, 2.50929, 2.49833, 1.03443, -0.451863, 1.43047, 0.847812, -1.00875, -1.17011, -1.50557, -0.428307, 0.511937, 1.10811, -3.37301, 0.00248987, 0.684852, -0.607332, 3.30578, -0.142274, -2.13227, 1.77085, -2.85534, -0.463224, -1.65983, -0.712955, -2.18334, -1.63554, 1.52309, 5.07998, 1.42823, 3.47975, 3.09927, -0.432539, -4.79923, -2.0992, -3.18851, 2.62782, -0.866507, -3.39057, 0.464342, -2.58739, -2.16731, 2.4428, 3.07236, 2.27062, -2.95802, -3.6361, 0.81087, -2.68974, 1.37064, 0.174885, 2.27649, -2.98368, -1.46439, -3.72791, -2.46376, -1.76564, 3.65224, 0.116455, -1.40907, -2.09962, -1.22482, -0.609894, -1.51805, -0.862145, -0.73211, -0.565563, -1.55615, -2.10833, -4.58389, 0.732724, -0.268834, -1.94655, 0.153977, 1.00562, -1.55289, 3.2355, 3.32585, 3.72072, 2.35556, -2.13482, 0.0529373, -2.71867, 2.03644, 1.18131, 2.67228, -1.41447, 1.31201, 1.43647, 3.0394, -3.09683, 1.42456, 3.97286, 3.80538, -2.9574, -1.04693, -3.67654, 0.323835, -2.63565, 0.00688985, -2.78409, 2.30577, -2.04947, -2.30813, -1.31791, 1.96343, -0.685687, 3.65946,  
